Language model created by QuickLM on Sun Mar 18 04:51:16 EDT 2018
Copyright (c) 1996-2010 Carnegie Mellon University and Alexander I. Rudnicky

The model is in standard ARPA format, designed by Doug Paul while he was at MITRE.

The code that was used to produce this language model is available in Open Source.
Please visit http://www.speech.cs.cmu.edu/tools/ for more information

The (fixed) discount mass is 0.5. The backoffs are computed using the ratio method.
This model based on a corpus of 10564 sentences and 4031 words

\data\
ngram 1=4031
ngram 2=11852
ngram 3=13906

\1-grams:
-1.4423 </s> -0.3010
-1.4423 <s> -0.1991
-2.1929 A -0.2723
-4.4247 ABBAIANO -0.3007
-4.1651 ABBANDONARE -0.2951
-4.5119 ABBANDONATI -0.3001
-4.5630 ABBANDONATO -0.2976
-4.5119 ABBANDONAVANO -0.2951
-4.4247 ABBANDONERò -0.2851
-4.6210 ABBANDONI -0.2993
-4.3200 ABBANDONIAMO -0.2976
-4.5119 ABBANDONò -0.2951
-5.4661 ABBASSA -0.2951
-4.1439 ABBASSò -0.2951
-4.5119 ABBASTANZA -0.3010
-4.4661 ABBATTENDO -0.3007
-4.4661 ABBATTERE -0.3006
-4.9890 ABBATTERò -0.3006
-3.6532 ABBIA -0.2972
-3.3390 ABBIAMO -0.2886
-4.1651 ABBIANO -0.3008
-4.9890 ABBORDAGGIO -0.2851
-4.4247 ABBRACCIARE -0.2993
-4.4661 ABBRUCI -0.3009
-5.1651 ABILI -0.3010
-4.2108 ABISSI -0.2999
-4.5119 ABITA -0.3007
-4.1873 ABITANTI -0.2952
-4.6879 ABITAZIONE -0.2996
-5.4661 ABRUZZO -0.2851
-4.7671 ACCADRà -0.3009
-4.2357 ACCAMPATI -0.3008
-4.6879 ACCANITO -0.3010
-4.5630 ACCELERAVA -0.3008
-4.5119 ACCENDIAMO -0.2986
-4.8640 ACCENTO -0.3010
-4.2108 ACCERTARSI -0.2950
-4.2357 ACCERTATI -0.3000
-4.1237 ACCESO -0.2971
-4.5119 ACCETTARE -0.3007
-4.5630 ACCETTARLO -0.2851
-4.3869 ACCETTO -0.2951
-4.4247 ACCOLSE -0.2851
-4.6210 ACCOMODANDO -0.2993
-4.5630 ACCOMPAGNAVA -0.2951
-4.6210 ACCOMPAGNERò -0.3007
-4.5119 ACCONTENTAVANO -0.2960
-4.5630 ACCORDAVANO -0.3010
-4.5630 ACCORDEREMO -0.3004
-4.3869 ACCORGERANNO -0.3000
-3.9890 ACCORGERSI -0.2951
-4.4661 ACCORRENDO -0.3009
-4.6879 ACCORRERE -0.3009
-4.5630 ACCORREVA -0.2998
-4.6210 ACCORSE -0.2851
-4.6879 ACCORSO -0.2995
-4.7671 ACCORTI -0.2962
-4.4247 ACCORTISI -0.3004
-4.5630 ACCOSTARSI -0.2985
-4.7671 ACCUMULATI -0.3009
-3.7759 ACQUA -0.2812
-4.1237 ACQUATICI -0.3004
-3.9609 ACQUE -0.2839
-4.5119 ACUTA -0.2960
-4.5119 ACUTE -0.2996
-4.3522 ACUTI -0.2962
-2.8512 AD -0.2966
-5.4661 ADA -0.2851
-4.3200 ADAGIO -0.2850
-4.5119 ADDIO -0.2977
-4.3522 ADDITANDO -0.2951
-4.6210 ADDITò -0.2951
-3.7179 ADDOSSO -0.2783
-5.1651 ADESSO -0.2851
-5.4661 ADIGE -0.2851
-4.8640 ADOPERARE -0.3009
-3.7671 ADUNQUE -0.2954
-5.1651 AFFARE -0.3010
-4.3869 AFFARI -0.2999
-4.3522 AFFATTO -0.3008
-4.2108 AFFERMATIVO -0.3003
-4.4661 AFFERRANDO -0.2951
-4.1651 AFFERRò -0.2995
-4.3200 AFFIDO -0.2982
-4.6879 AFFINCHé -0.3009
-4.6210 AFFLUIRE -0.3008
-4.3869 AFFRETTARSI -0.2851
-4.1873 AFFRETTATO -0.2976
-4.1237 AFFRETTAVA -0.3008
-4.3869 AFFRETTAVANO -0.3009
-4.8640 AFFRETTIAMO -0.2951
-4.8640 AFFRETTIAMOCI -0.2982
-4.2357 AFFRONTARE -0.2968
-4.1439 AFFUMICARE -0.2979
-4.9890 AGGIORNA -0.2951
-5.4661 AGGIORNAMENTI -0.2851
-5.1651 AGGIUNGI -0.2970
-3.4884 AGGIUNSE -0.2779
-4.6879 AGGRAPPATO -0.3004
-4.2108 AGGROTTANDO -0.2976
-4.6210 AGGROTTò -0.2976
-4.3869 AGGRUPPATI -0.3010
-4.2108 AGGUATO -0.2836
-4.8640 AGILMENTE -0.2982
-4.5630 AGITAZIONE -0.2851
-3.6737 AGLI -0.3001
-3.1716 AI -0.2992
-4.5630 AIUTARVI -0.2998
-4.6210 AIUTATA -0.3009
-4.6210 AIUTERà -0.2982
-4.6879 AIUTO -0.2851
-2.9220 AL -0.2908
-4.7671 ALABARDE -0.2977
-4.7671 ALACREMENTE -0.3010
-3.6028 ALBERI -0.2802
-4.7671 ALBERO -0.3010
-5.4661 ALBERTO -0.2851
-3.6210 ALCUN -0.3006
-5.4661 ALCUNA -0.3010
-3.8129 ALCUNE -0.3009
-3.3762 ALCUNI -0.3006
-4.4661 ALCUNO -0.2851
-5.4661 ALESSANDRA -0.2851
-5.4661 ALESSANDRO -0.2851
-5.4661 ALESSIA -0.2851
-5.4661 ALESSIO -0.2851
-5.4661 ALEX -0.2851
-5.4661 ALI -0.3010
-5.4661 ALICE -0.2851
-4.5119 ALL'ABBORDAGGIO -0.2851
-4.1439 ALL'ALBA -0.3004
-4.0511 ALL'ALTRO -0.3008
-4.5630 ALL'AMICO -0.3001
-4.6879 ALL'APERTO -0.3010
-4.5630 ALL'ARCIONE -0.3002
-4.4661 ALL'ARGANO -0.2851
-3.6400 ALL'ASSALTO -0.2787
-4.6210 ALL'AZIONE -0.3010
-3.9890 ALL'ESTREMITà -0.2987
-4.1651 ALL'INFERNO -0.2996
-4.7671 ALL'OPERA -0.2851
-4.6210 ALL'ULTIMA -0.3010
-3.0299 ALLA -0.2994
-4.0347 ALLE -0.3010
-4.6210 ALLEGRAMENTE -0.2995
-4.3869 ALLEGRIA -0.2851
-4.1044 ALLEGRO -0.2848
-4.6879 ALLESTITE -0.2995
-4.4661 ALLOGGIO -0.3008
-4.4247 ALLONTANANDOSI -0.3008
-4.6879 ALLONTANò -0.2951
-3.2460 ALLORA -0.2811
-4.0347 ALMENO -0.2979
-4.5119 ALONZO -0.3010
-4.8640 ALTEZZA -0.2999
-4.4661 ALTO -0.3008
-4.6210 ALTRA -0.2851
-4.4247 ALTRE -0.3003
-4.5630 ALTRETTANTI -0.3010
-3.6148 ALTRI -0.2728
-4.2108 ALTRO -0.2850
-4.3869 ALTURE -0.3008
-5.4661 ALZA -0.2951
-4.2900 ALZANDO -0.2975
-4.6210 ALZANDOSI -0.3009
-4.7671 ALZARSI -0.3010
-4.5119 ALZATI -0.3009
-3.6737 ALZATO -0.2753
-4.3200 ALZò -0.2982
-4.5630 AMANTE -0.3002
-5.4661 AMAROK -0.2851
-5.1651 AMATA -0.2851
-4.3522 AMAZZONI -0.2851
-4.5630 AMBISCONO -0.2960
-4.1873 AMBO -0.2995
-4.5119 AMBURGHESE -0.3010
-4.3200 AMEREI -0.3010
-4.6210 AMERICA -0.2977
-3.9609 AMICI -0.2957
-3.7337 AMICO -0.2780
-5.4661 AMMASSO -0.2960
-4.3869 AMMIRABILE -0.3009
-4.1439 AMMIRO -0.2946
-4.3200 AMO -0.2851
-4.2900 AMPIO -0.3010
-4.6210 ANCH'EGLI -0.3000
-4.1439 ANCH'IO -0.2812
-3.0769 ANCHE -0.2780
-5.4661 ANCONA -0.2851
-2.9516 ANCORA -0.2745
-4.4661 ANDARCENE -0.2851
-3.8326 ANDARE -0.2762
-4.5630 ANDARLO -0.2982
-4.4247 ANDARVENE -0.3006
-4.8640 ANDASSERO -0.2851
-4.5630 ANDATI -0.2982
-4.2108 ANDATO -0.2982
-3.8863 ANDIAMO -0.2978
-3.9747 ANDRAI -0.2968
-4.6879 ANDRANNO -0.3009
-5.4661 ANDREA -0.2851
-4.0511 ANDREMO -0.2961
-4.7671 ANDRETE -0.3004
-5.4661 ANDRIA -0.2851
-4.4661 ANDRà -0.2982
-4.3869 ANDRò -0.2851
-5.4661 ANGELA -0.2851
-5.4661 ANGELO -0.2851
-4.4661 ANGUILLE -0.2851
-4.1873 ANIMA -0.2846
-4.5630 ANIMALE -0.3000
-4.0859 ANIMALI -0.2850
-4.4661 ANIMATI -0.2999
-4.4661 ANIMAVA -0.3001
-5.4661 ANNA -0.2851
-4.2108 ANNI -0.2951
-5.4661 ANNULLA -0.2851
-4.5119 ANSARA -0.3010
-4.7671 ANSIETà -0.2851
-4.1237 ANTILLE -0.2822
-5.4661 ANTONIO -0.2851
-4.6210 ANTROPOFAGHI -0.2977
-4.5119 ANTROPOFAGO -0.2851
-4.1873 ANZI -0.2952
-4.2620 APERTA -0.2975
-4.1439 APERTO -0.2949
-5.4661 APERTURA -0.3009
-4.3200 APPARIVA -0.3008
-4.6879 APPARTENETE -0.3006
-3.4054 APPENA -0.2911
-4.5630 APPESA -0.3010
-4.3522 APPESI -0.3006
-4.6210 APPESTERETE -0.3007
-4.0682 APPICCARE -0.2976
-4.9890 APPICCARLO -0.3009
-4.2620 APPICCATI -0.2999
-4.5119 APPICCATO -0.2993
-4.6879 APPICCHEREMO -0.3010
-4.5630 APPOGGIARSI -0.3006
-4.4661 APPOGGIATA -0.3010
-4.5119 APPOGGIATO -0.3008
-4.5630 APPRENSIONE -0.2851
-4.5630 APPRESE -0.2995
-4.5630 APPRODANO -0.2851
-4.4247 APPRODATO -0.3009
-4.2900 APPROFITTANO -0.2996
-4.6210 APPROFITTIAMO -0.3000
-3.8750 APRI -0.2846
-4.1439 APRIRE -0.2992
-4.8640 APRIREMO -0.3001
-4.6210 APRITE -0.2982
-4.6210 APRí -0.2995
-4.3869 ARAWAKI -0.2843
-4.2900 ARCHIBUGIATE -0.2982
-4.9890 ARCHIBUGIO -0.2851
-4.5119 ARDESSE -0.3007
-4.3869 ARDEVA -0.3007
-4.6879 ARDITI -0.3001
-3.8979 ARENATA -0.3009
-5.4661 AREZZO -0.2851
-4.8640 ARIA -0.2985
-5.4661 ARIANNA -0.2851
-4.7671 ARMADI -0.3010
-4.4661 ARMANDO -0.3009
-4.4661 ARMATE -0.2960
-4.2900 ARMATI -0.2960
-4.6879 ARMATO -0.2977
-3.7337 ARMI -0.2974
-4.9890 AROMATICHE -0.3003
-4.9890 ARRABBIATI -0.2851
-4.6879 ARRAMPICATO -0.3007
-4.4247 ARRANCANDO -0.3010
-4.5630 ARRANCAVANO -0.2999
-4.4247 ARRENDERSI -0.3008
-4.5119 ARRENDERVI -0.2851
-4.5630 ARRENDETEVI -0.3009
-4.4661 ARRESTARCI -0.3010
-4.6879 ARRESTARE -0.3009
-4.3869 ARRESTARSI -0.3010
-4.1651 ARRESTATI -0.2996
-4.1873 ARRESTATO -0.2978
-4.5119 ARRESTò -0.3009
-4.6879 ARRISCHIARVI -0.2960
-4.2357 ARROSTO -0.2816
-4.6210 ARTIGLIERI -0.2851
-3.9890 ARTIGLIERIE -0.2796
-4.4661 ASCIUTTO -0.3010
-5.1651 ASCOLTA -0.2937
-4.2357 ASCOLTATO -0.2996
-4.4247 ASCOLTò -0.3010
-4.1044 ASPETTA -0.2899
-4.7671 ASPETTANDO -0.3010
-4.6879 ASPETTARE -0.2851
-4.4247 ASPETTARLI -0.2995
-4.3200 ASPETTARMI -0.3007
-4.6210 ASPETTATE -0.2951
-4.2108 ASPETTATIVA -0.3010
-4.3869 ASPETTAVANO -0.2998
-4.6210 ASPETTERANNO -0.2976
-4.3522 ASPETTERà -0.3002
-4.5119 ASPETTIAMOLI -0.2998
-4.6879 ASPETTO -0.2962
-4.6879 ASSAGGEREI -0.3010
-4.2108 ASSAGGIARE -0.2989
-3.8863 ASSAI -0.2845
-4.6210 ASSALENDO -0.3010
-4.6210 ASSALIRCI -0.2960
-4.3200 ASSALIRE -0.2972
-4.5119 ASSALIRLO -0.2851
-4.1651 ASSALITI -0.2979
-4.7671 ASSALITORI -0.3010
-4.6210 ASSALTO -0.3010
-4.4247 ASSASSINARE -0.2982
-4.5630 ASSASSINARLO -0.2996
-4.3522 ASSASSINARVI -0.2851
-4.6879 ASSASSINIO -0.2851
-4.2357 ASSASSINO -0.2850
-4.6210 ASSEDIERANNO -0.2977
-4.2357 ASSENZA -0.3006
-4.3869 ASSICURA -0.2962
-4.6879 ASSICURARSI -0.2962
-4.2357 ASSICURO -0.2958
-3.7671 ASSIEME -0.2967
-4.5119 ASSISO -0.3006
-4.5119 ASSOLUTA -0.3010
-4.1237 ASSOLUTAMENTE -0.3010
-4.5119 ASSORBITI -0.3010
-4.5630 ASSUMENDO -0.2995
-4.4247 ASSUNTO -0.3010
-4.1237 ASTUTO -0.2952
-4.7671 ASTUZIE -0.3000
-4.5630 ATLANTICO -0.2851
-4.3869 ATTACCAMENTO -0.3006
-4.3869 ATTACCATO -0.3006
-4.5119 ATTACCO -0.2960
-4.5630 ATTENDANO -0.2851
-4.5630 ATTENDE -0.2996
-3.8979 ATTENDERE -0.2900
-4.5119 ATTENDERLO -0.2976
-4.5119 ATTENDO -0.3010
-4.1044 ATTENTAMENTE -0.3007
-4.0859 ATTESA -0.2998
-4.5119 ATTORNO -0.3007
-4.3869 ATTRAVERSANO -0.3010
-4.0859 ATTRAVERSARE -0.2813
-4.6879 ATTRAVERSARLA -0.2851
-4.7671 ATTRAVERSARLO -0.3007
-4.5119 ATTRAVERSAVA -0.2996
-4.5630 ATTRAVERSEREMO -0.2995
-3.7501 ATTRAVERSO -0.2931
-4.2900 ATTUARE -0.3009
-4.0682 AUDACI -0.3010
-4.1651 AUDACIA -0.2818
-5.4661 AUMENTA -0.3010
-4.5119 AUMENTAVA -0.3010
-4.5630 AUTENTICO -0.3006
-4.3869 AUTORITà -0.2960
-4.5630 AVANZANDOSI -0.3006
-4.5630 AVANZANTISI -0.3007
-4.3869 AVANZARE -0.2998
-4.3522 AVANZARSI -0.3004
-4.4661 AVANZAVA -0.3008
-4.3869 AVARACCIO -0.3002
-4.6210 AVENDO -0.3010
-4.3869 AVENDOCI -0.3001
-3.6599 AVER -0.2994
-4.3522 AVERCI -0.2995
-3.9476 AVERE -0.2996
-4.2108 AVERLO -0.3009
-3.6668 AVESSE -0.2988
-4.3522 AVESSERO -0.3010
-4.1044 AVESSI -0.2951
-3.5167 AVETE -0.3005
-2.9529 AVEVA -0.2945
-4.3200 AVEVAMO -0.2997
-3.2786 AVEVANO -0.2988
-3.8863 AVEVO -0.2995
-4.3200 AVIDITà -0.2960
-4.6210 AVRAI -0.2999
-5.4661 AVRANNO -0.3010
-3.7179 AVREBBE -0.2997
-4.3522 AVREBBERO -0.3010
-3.8863 AVREI -0.3009
-4.0859 AVREMO -0.2905
-3.7501 AVRà -0.2990
-5.4661 AVUTE -0.2995
-3.7102 AVUTO -0.2896
-4.5630 AVVANTAGGIARSI -0.2851
-4.3522 AVVELENARLE -0.3005
-4.5630 AVVENNE -0.2986
-4.6210 AVVENTURA -0.3010
-4.2357 AVVENTURE -0.2850
-4.2108 AVVENUTO -0.2850
-4.4247 AVVERSARI -0.2969
-4.4247 AVVERSARIA -0.2818
-4.5630 AVVERSARII -0.2851
-4.3869 AVVERTE -0.2951
-4.6879 AVVERTIMENTO -0.3010
-4.4661 AVVERTIRE -0.3010
-4.4247 AVVERTITO -0.2851
-4.8640 AVVERTO -0.2962
-4.8640 AVVICINASSE -0.2960
-4.1439 AVVICINATO -0.3005
-4.4247 AVVICINERà -0.3008
-4.2357 AVVICINò -0.2972
-4.5119 AVVISO -0.2998
-4.8640 AVVOLGEVA -0.2851
-4.3869 BABORDO -0.2977
-4.5630 BACCHE -0.3010
-4.5119 BACINO -0.3010
-4.6210 BACIO -0.3007
-3.8428 BADA -0.2962
-4.4247 BADATE -0.2960
-4.5119 BADIAMO -0.2962
-4.3869 BAGNARE -0.2976
-4.3522 BALENAVA -0.3010
-4.5630 BALENAVANO -0.3008
-4.8640 BALZARE -0.3010
-4.5630 BALZATO -0.2995
-4.4661 BALZAVA -0.3009
-4.9890 BALZAVANO -0.3007
-4.2620 BALZO -0.2999
-4.2357 BALZò -0.3005
-4.2900 BANCO -0.2977
-4.3200 BANDA -0.2798
-4.3522 BANDE -0.3010
-4.4247 BANDIERA -0.3010
-4.4247 BANDITO -0.2962
-4.3869 BARCA -0.2999
-4.4661 BARCACCIA -0.2982
-4.5630 BARCHE -0.2977
-4.8640 BARCOLLANDO -0.3010
-5.4661 BARI -0.2851
-4.2900 BARILE -0.2975
-4.4247 BARILOTTO -0.2960
-5.4661 BARLETTA -0.2851
-4.2900 BARRA -0.2964
-4.5119 BARRERO -0.2851
-4.6879 BARRICARE -0.2995
-4.7671 BARRICARLA -0.3010
-4.7671 BASCHI -0.2979
-4.0511 BASCO -0.2779
-4.2357 BASE -0.2991
-5.4661 BASILICATA -0.2851
-4.5630 BASSA -0.3007
-4.3869 BASSO -0.2962
-4.6210 BASTA -0.2851
-4.7671 BASTARONO -0.2996
-4.2108 BASTATA -0.2968
-4.6879 BASTAVA -0.2982
-4.6879 BASTERANNO -0.2996
-4.6210 BASTIAMO -0.2996
-4.5630 BASTIMENTI -0.2851
-4.1873 BASTIONI -0.2851
-4.5630 BASTONATE -0.2955
-4.1439 BATTAGLIA -0.2985
-4.3522 BATTE -0.3008
-4.3869 BATTERE -0.2993
-3.8750 BATTERIA -0.2804
-4.3869 BATTERIE -0.3009
-4.4247 BATTERVI -0.3002
-4.5630 BATTO -0.2979
-5.4661 BEATRICE -0.2851
-4.2108 BEGLI -0.3006
-4.5630 BELL'AUDACIA -0.2995
-4.5630 BELL'IMBARAZZO -0.3000
-3.8750 BELLA -0.2848
-4.6210 BELLI -0.3008
-4.7671 BELLO -0.2996
-4.3522 BELZEBú -0.2977
-3.7849 BEN -0.3000
-3.4618 BENE -0.2833
-4.1873 BENISSIMO -0.2972
-4.1237 BENSí -0.2973
-4.5119 BERE -0.2996
-5.4661 BERGAMO -0.2851
-4.0037 BERRETTO -0.2826
-5.1651 BERSAGLIERI -0.2979
-4.4661 BESTIA -0.2822
-4.8640 BESTIE -0.2979
-4.6210 BEVA -0.3005
-4.5119 BEVITORI -0.3008
-4.1873 BIANCA -0.3010
-3.8428 BIANCO -0.2801
-4.6210 BIBLIOTECA -0.2851
-4.5119 BICCHIERE -0.3006
-4.5119 BIONDI -0.3010
-4.4247 BIRBONE -0.3010
-4.2108 BISBIGLIAVANO -0.3006
-4.5630 BISCAGLINI -0.2962
-4.4247 BISCAGLINO -0.3001
-4.5630 BISCOTTI -0.3006
-3.8863 BISOGNA -0.2958
-4.0347 BISOGNERà -0.2961
-4.5630 BISOGNO -0.2960
-4.9890 BLOCCA -0.2789
-5.1651 BLUETOOTH -0.2851
-5.4661 BLUTOOTH -0.2851
-4.5630 BOCCA -0.3010
-4.6210 BOCCAPORTI -0.3010
-5.4661 BOLOGNA -0.2851
-5.4661 BOLZANO -0.2851
-4.4247 BOMBARDARCI -0.2851
-4.2900 BOMBARDARE -0.3004
-4.2900 BOMBARDIAMO -0.3001
-4.5119 BORDATA -0.3009
-4.6879 BORDATE -0.3010
-3.2988 BORDO -0.2708
-4.4661 BOSCELLI -0.3010
-4.3869 BOSCHETTI -0.2851
-4.4247 BOSCHETTO -0.2960
-3.7759 BOSCHI -0.2948
-4.2108 BOSCO -0.2806
-4.0859 BOTTE -0.2789
-4.5119 BOTTIGLIA -0.2960
-4.6879 BOTTIGLIE -0.2960
-4.5630 BOTTINI -0.2993
-3.9890 BRACCIA -0.2999
-3.6466 BRACCIO -0.2962
-4.3869 BRAMOSIA -0.3010
-4.5630 BRANCA -0.2851
-4.6879 BRANDE -0.3007
-4.6210 BRANDO -0.2998
-5.1651 BRANO -0.2851
-4.5630 BRAV'UOMO -0.2962
-4.6210 BRAVACCIO -0.2851
-4.0347 BRAVI -0.2988
-4.4661 BRAVO -0.3010
-4.4661 BRECCIA -0.3006
-5.4661 BRESCIA -0.2851
-3.7671 BREVE -0.3008
-4.5630 BREVISSIMO -0.2851
-4.8640 BRICCONI -0.3010
-4.5119 BRILLARE -0.2996
-4.0037 BRIVIDO -0.2794
-4.0859 BRONTOLò -0.3001
-5.4661 BROWSER -0.2851
-5.1651 BRUCIANO -0.3005
-4.2357 BRUCIAPELO -0.2851
-3.6028 BRUSCAMENTE -0.2850
-3.8533 BRUTTA -0.3007
-5.1651 BRUTTO -0.3010
-4.4247 BUCANIERI -0.2851
-3.8533 BUON -0.3007
-3.6210 BUONA -0.2975
-4.6879 BUONI -0.3008
-4.4661 BUONO -0.2999
-4.5119 BUTú -0.2962
-4.6879 C'ENTRANO -0.2993
-4.2620 CABALLEROS -0.2800
-4.2620 CABINA -0.2850
-4.2108 CACCIA -0.2980
-4.3522 CACCIANDO -0.2996
-4.5630 CACCIATO -0.3008
-4.5119 CACCIATORE -0.3010
-4.5119 CADANO -0.2995
-3.5418 CADAVERE -0.2711
-4.4247 CADAVERI -0.2851
-3.9220 CADDE -0.2964
-4.2357 CADEMMO -0.2995
-4.4661 CADERE -0.3010
-4.5630 CADESSE -0.2851
-4.5119 CADEVA -0.3009
-4.6210 CADEVANO -0.3010
-4.4661 CADUTA -0.2977
-4.1439 CADUTO -0.2978
-5.4661 CAGLIARI -0.2851
-4.3522 CAIMANI -0.3008
-4.5630 CAIMANO -0.3010
-5.1651 CALABRIA -0.2851
-4.4247 CALAFATI -0.2851
-4.4247 CALARE -0.2976
-4.5630 CALATE -0.2995
-4.4661 CALATI -0.3009
-5.4661 CALC -0.2851
-4.6879 CALCIO -0.2996
-5.4661 CALCOLATRICE -0.2851
-5.4661 CALCOLO -0.2851
-4.7671 CALINO -0.2995
-4.4247 CALMA -0.2851
-4.5630 CALMO -0.2977
-4.2620 CALPESTAVA -0.2851
-4.4247 CALUPI -0.2851
-4.6210 CALò -0.3010
-4.4661 CAMBIATO -0.3010
-4.0037 CAMERATA -0.2841
-3.9747 CAMERATI -0.2840
-5.4661 CAMILLA -0.2851
-4.3200 CAMMINI -0.3010
-3.8750 CAMMINO -0.2847
-4.3522 CAMPAGNA -0.2816
-4.3200 CAMPANA -0.3010
-5.1651 CAMPANIA -0.2851
-4.2900 CAMPO -0.2851
-4.6210 CANAGLIE -0.3009
-4.5630 CANDIDA -0.3010
-4.0189 CANE -0.2951
-4.3869 CANI -0.2850
-4.4247 CANNE -0.2999
-4.2357 CANNONE -0.2825
-4.2108 CANNONEGGIAMENTO -0.2992
-4.1651 CANNONI -0.3003
-3.7102 CANOTTO -0.2814
-4.7671 CANTERANI -0.3010
-5.4661 CANZIONE -0.2851
-4.6879 CANZONE -0.2850
-4.6879 CAPACE -0.3000
-4.5630 CAPACI -0.2953
-4.6879 CAPACITà -0.2960
-3.7337 CAPANNA -0.2797
-4.5119 CAPELLI -0.3010
-4.1237 CAPI -0.2983
-3.3231 CAPITANO -0.2762
-4.4247 CAPITE -0.3009
-5.1651 CAPITOMBOLO -0.3010
-3.3692 CAPO -0.2700
-4.2620 CAPPELLO -0.3009
-4.1873 CARA -0.2972
-4.5119 CARAIBI -0.2999
-3.5853 CARAVELLA -0.2812
-4.5119 CARAYBI -0.3007
-4.1651 CARBONE -0.2967
-4.5630 CARBéT -0.3001
-4.3869 CARI -0.3009
-4.4247 CARICHI -0.3004
-4.6210 CARICO -0.2960
-2.6532 CARMAUX -0.2573
-4.2357 CARNE -0.2959
-3.9890 CARO -0.2804
-4.8640 CARTELLA -0.2997
-4.6210 CARTELLO -0.3010
-3.3390 CASA -0.2747
-4.6210 CASACCA -0.2851
-4.6210 CASE -0.3010
-3.8750 CASO -0.2745
-4.7671 CASSE -0.3010
-4.6879 CASSERO -0.2977
-3.9890 CASTIGLIANO -0.2948
-3.0734 CATALANO -0.2692
-5.4661 CATANIA -0.2851
-4.4661 CATATUMBO -0.3003
-5.4661 CATERINA -0.2851
-4.6210 CATTIVA -0.2999
-4.1439 CATTIVI -0.2850
-4.4661 CAUSATO -0.2986
-3.6028 CAVALIERE -0.2704
-4.2900 CAVALLI -0.2806
-4.1044 CAVALLO -0.2849
-4.5119 CAVATA -0.2960
-4.3200 CAVATE -0.2999
-4.5119 CAVERNA -0.2851
-4.6210 CAVOLI -0.3010
-4.8640 CE -0.3001
-4.7671 CENA -0.3000
-4.1439 CENARE -0.2994
-4.5630 CENCI -0.3010
-5.1651 CENERANNO -0.2851
-3.8226 CENNO -0.2999
-4.9890 CENTIMETRI -0.2960
-4.4247 CENTINAIA -0.2960
-3.9476 CENTO -0.3006
-4.5630 CENTOMILA -0.3010
-3.9890 CERCA -0.2797
-4.1873 CERCANDO -0.2960
-5.4661 CERCATO -0.2960
-4.4661 CERCAVA -0.2960
-4.6210 CERCAVANO -0.3010
-4.4661 CERCHEREMO -0.3007
-4.7671 CERCO -0.3010
-4.4661 CERCò -0.2900
-4.5119 CERIMONIA -0.3010
-4.0037 CERTA -0.3009
-4.1873 CERTAMENTE -0.2982
-4.4661 CERTEZZA -0.2962
-3.9890 CERTI -0.2960
-3.5023 CERTO -0.2888
-4.0511 CERVELLO -0.2851
-5.4661 CESENA -0.2851
-1.9530 CHE -0.2156
-3.4016 CHI -0.2975
-4.8640 CHIACCHIERE -0.2851
-4.6210 CHIAMA -0.2951
-4.4247 CHIAMANO -0.3001
-4.6879 CHIAMARE -0.2979
-5.4661 CHIAMO -0.2851
-4.3522 CHIAMò -0.3009
-5.4661 CHIARA -0.2851
-4.4247 CHIARO -0.3010
-4.6210 CHIAVE -0.3009
-4.4661 CHIEDEREI -0.3005
-4.7671 CHIEDERGLI -0.2998
-4.6879 CHIEDERVI -0.2999
-4.5630 CHIEDEVO -0.2951
-3.3077 CHIESE -0.2703
-4.3522 CHIESTO -0.2959
-4.5119 CHINA -0.2851
-4.6879 CHISSà -0.2851
-4.5119 CHIUDERà -0.2951
-4.5119 CHIUDEVA -0.2976
-4.3200 CHIUSA -0.2976
-4.1651 CHIUSE -0.3001
-4.6210 CHIUSI -0.2982
-5.4661 CHRISTIAN -0.2851
-5.4661 CHROME -0.2851
-5.4661 CHROMIUM -0.2851
-3.0159 CI -0.2991
-4.5119 CIBI -0.3009
-4.5630 CIECO -0.3002
-4.1873 CIMA -0.2924
-4.6879 CINGHIALE -0.2851
-4.7671 CINQUANTINA -0.2960
-3.8226 CINQUE -0.2988
-4.3522 CINQUECENTO -0.3009
-4.6879 CINTOLA -0.3008
-4.5119 CIRCOLO -0.3010
-4.8640 CITTADINI -0.2977
-3.5216 CITTà -0.2754
-4.3869 CIUFFO -0.2960
-3.4884 CIò -0.2929
-4.6879 CLAMORE -0.3010
-4.7671 CLAMORI -0.3010
-5.4661 CLAUDIA -0.2851
-5.4661 CLAUDIO -0.2851
-3.8226 CLIENTE -0.2958
-4.3869 CLIENTI -0.3007
-4.3522 CODUTI -0.3010
-3.9747 COGLI -0.3008
-4.1873 COGUARI -0.2846
-3.9609 COI -0.3007
-3.7418 COL -0.2995
-4.5630 COLA -0.3005
-4.1439 COLAZIONE -0.2789
-4.6210 COLERA -0.3010
-4.0511 COLICHE -0.3009
-4.6210 COLL'ABBATTERE -0.2976
-3.8640 COLLA -0.3003
-3.7940 COLLE -0.3002
-4.4661 COLLERA -0.3000
-4.1651 COLLINA -0.2825
-4.7671 COLLOCHERAI -0.3008
-4.6210 COLONIE -0.2851
-4.6210 COLORIVA -0.2995
-3.9609 COLORO -0.2962
-3.7501 COLPI -0.2783
-4.5630 COLPIRANNO -0.2851
-4.3522 COLPIRE -0.2998
-4.4247 COLPITA -0.2999
-4.5119 COLPITO -0.2979
-3.4749 COLPO -0.2782
-4.6879 COLTELLACCI -0.2851
-4.8640 COLTELLI -0.2851
-4.6879 COLTELLO -0.2999
-4.5119 COLTI -0.3009
-4.0037 COLUI -0.2933
-4.0682 COLà -0.2962
-3.3942 COMANDANTE -0.2700
-4.5119 COMANDATO -0.3006
-4.4661 COMANDEREMO -0.2993
-4.3522 COMANDI -0.3002
-3.8326 COMANDO -0.2753
-4.6879 COMANDò -0.2951
-4.4661 COMBATTERE -0.2982
-4.4661 COMBATTIAMO -0.2999
-4.5119 COMBATTIMENTI -0.2851
-4.2900 COMBATTIMENTO -0.2851
-2.8347 COME -0.2783
-4.4247 COMINCIA -0.2982
-4.8640 COMINCIANDO -0.2995
-4.5119 COMINCIATA -0.2998
-4.1651 COMINCIAVANO -0.2982
-4.6210 COMINCIO -0.2982
-4.5630 COMINCIò -0.2982
-4.3200 COMMESSE -0.3004
-4.4661 COMMISE -0.2986
-4.0511 COMMOSSA -0.2851
-4.4661 COMODAMENTE -0.2951
-3.6532 COMPAGNI -0.2750
-3.9609 COMPAGNIA -0.3003
-3.9476 COMPAGNO -0.2956
-3.3589 COMPARE -0.2940
-4.3522 COMPARI -0.2851
-4.4661 COMPARSA -0.3009
-4.5630 COMPARSO -0.2986
-4.5630 COMPASSATO -0.3010
-4.1651 COMPATRIOTI -0.2851
-4.7671 COMPITE -0.2976
-4.4247 COMPLETA -0.3010
-4.1873 COMPLETAMENTE -0.2850
-4.3200 COMPRENDENDO -0.3009
-4.5630 COMPRENDERE -0.3010
-4.5119 COMPRENDO -0.3004
-4.5630 COMPRESA -0.2976
-4.5119 COMPRESO -0.2962
-4.9890 COMPUTER -0.2851
-4.5119 COMUNI -0.3009
-4.6879 COMUNICAZIONI -0.3010
-4.3869 COMUNQUE -0.3008
-2.5387 CON -0.2845
-4.5630 CONCEDEVANO -0.2993
-4.6210 CONCERTEREMO -0.3010
-4.6210 CONCIATO -0.2995
-4.6210 CONDITA -0.3010
-4.5119 CONDIZIONI -0.2851
-4.4661 CONDOTTIERI -0.3010
-4.5119 CONDOTTO -0.2998
-4.6879 CONDUCE -0.2995
-4.5119 CONDUCETE -0.2965
-4.6210 CONDUCETELO -0.2998
-4.3522 CONDUCEVA -0.3008
-4.5630 CONDUCO -0.2998
-4.5630 CONDURRANNO -0.3010
-4.7671 CONDURRE -0.3009
-4.6210 CONDURREMO -0.2982
-4.6210 CONDURRò -0.3008
-4.5630 CONDURVI -0.2982
-4.2900 CONDUSSE -0.2990
-4.6879 CONFABULANDO -0.3010
-4.5119 CONFERMA -0.2962
-4.6210 CONFERMò -0.2951
-4.5630 CONFESSO -0.2962
-4.5630 CONFUSAMENTE -0.2996
-4.6210 CONFUSIONE -0.2996
-4.6879 CONNAZIONALI -0.2851
-5.4661 CONNETTI -0.3010
-4.1044 CONO -0.2851
-4.3522 CONOSCE -0.3008
-4.0859 CONOSCERE -0.2906
-4.2620 CONOSCETE -0.3005
-4.7671 CONOSCEVA -0.2995
-4.8640 CONOSCIAMO -0.2986
-4.6210 CONOSCIUTO -0.2996
-4.4247 CONOSCONO -0.3010
-4.6879 CONQUISTATA -0.2851
-4.3869 CONSERVATO -0.2986
-4.5119 CONSERVAVA -0.2996
-4.4661 CONSIGLIARSI -0.2851
-4.5119 CONSIGLIEREI -0.3005
-4.3869 CONSIGLIO -0.2851
-4.6210 CONSUMARSI -0.3010
-5.4661 CONSUMO -0.3010
-4.5630 CONTA -0.3001
-5.4661 CONTATTO -0.3006
-4.5630 CONTAVO -0.3007
-3.4491 CONTE -0.2730
-4.8640 CONTENGONO -0.2996
-4.6210 CONTENTI -0.2960
-4.3869 CONTI -0.2999
-4.4247 CONTINENTE -0.2979
-3.9609 CONTINUA -0.3002
-4.6210 CONTINUANDO -0.2982
-4.3869 CONTINUATO -0.3004
-4.5630 CONTINUAVANO -0.3004
-4.5119 CONTINUE -0.3010
-4.2620 CONTINUò -0.2785
-4.5119 CONTRABBANDIERE -0.3008
-3.7337 CONTRO -0.2916
-4.5630 CONTROBRACCIA -0.2951
-4.6210 CONTROMASTRI -0.3010
-4.6879 CONTROMASTRO -0.3003
-4.5630 CONVERTIRE -0.3008
-4.6210 CONVINTI -0.2962
-4.5119 CONXEVIO -0.2851
-3.7418 COPERTA -0.2797
-4.5630 COPERTI -0.2960
-4.9890 COPIA -0.2753
-4.2357 COPRENDOSI -0.2900
-4.7671 COPRí -0.2996
-4.1044 CORAGGIO -0.2798
-4.6879 CORAGGIOSI -0.3004
-4.9890 CORDA -0.3010
-4.2357 CORDIALMENTE -0.2971
-4.0682 CORPO -0.2850
-4.1044 CORRENDO -0.2975
-4.7671 CORRENTE -0.2960
-3.8326 CORRERE -0.2970
-4.5119 CORREREMO -0.2995
-4.8640 CORREVANO -0.3006
-4.2357 CORRIDOIO -0.2984
-4.1651 CORSA -0.2846
-4.3522 CORSARA -0.2997
-4.5630 CORSARE -0.3006
-3.9890 CORSARI -0.2997
-2.3364 CORSARO -0.2504
-4.7671 CORTA -0.3010
-4.3869 CORTO -0.2960
-3.2620 COSA -0.2916
-4.1044 COSE -0.2968
-3.6336 COSTA -0.2827
-4.6210 COSTARVI -0.3010
-3.9220 COSTE -0.2787
-4.0037 COSTEGGIANDO -0.2935
-4.4247 COSTI -0.2986
-4.6879 COSTOLETTA -0.3001
-4.6210 COSTOLETTE -0.2851
-4.2357 COSTORO -0.2979
-3.9476 COSTRETTI -0.2976
-4.6210 COSTRETTO -0.2982
-4.5119 COSTRINGENDOLO -0.2982
-4.6210 COSTRINGERANNO -0.3006
-4.3522 COSTRINGERE -0.2966
-4.4247 COSTRINGERLI -0.3004
-3.0545 COSí -0.2842
-4.5119 COVO -0.2851
-4.5119 CRANIO -0.3001
-4.4661 CREDE -0.2962
-4.4661 CREDENDO -0.2960
-4.4661 CREDERANNO -0.2996
-4.3869 CREDERE -0.2962
-3.9098 CREDETE -0.2961
-4.4661 CREDEVA -0.3010
-4.2357 CREDEVAMO -0.2960
-4.8640 CREDEVANO -0.2960
-4.0037 CREDEVO -0.2958
-3.9747 CREDI -0.2951
-3.4793 CREDO -0.2911
-4.4247 CREPATO -0.3009
-4.4661 CRESCENTE -0.3010
-4.6210 CRESCERE -0.3010
-4.8640 CRESCEVA -0.2960
-5.4661 CRISTINA -0.2851
-4.5630 CROCETTA -0.3010
-4.4247 CROLLANDO -0.2951
-4.5630 CROLLERà -0.3008
-4.1044 CRUZ -0.2846
-4.5630 CUCINARSI -0.2851
-3.9890 CUI -0.3001
-3.9609 CUORE -0.2794
-3.8129 CUPA -0.2850
-4.0189 CUPO -0.2947
-4.5630 CURE -0.2977
-4.4247 CURIOSITà -0.3001
-3.9220 CURVANDOSI -0.3002
-4.4247 CURVARONO -0.3010
-3.8863 CURVATO -0.2843
-4.2357 CURVò -0.3002
-3.9346 D'ACQUA -0.2974
-4.6210 D'AGLIO -0.3010
-4.2357 D'ALTRO -0.2850
-4.1651 D'ALTRONDE -0.2979
-4.3869 D'AMBE -0.2995
-4.5119 D'AMBO -0.2995
-4.5630 D'ANDARSENE -0.2851
-4.5119 D'ANGOSCIA -0.2851
-4.2108 D'ANGOSCIOSA -0.3010
-4.3522 D'ANIME -0.3007
-4.2900 D'ANIMO -0.2960
-5.4661 D'AOSTA -0.2851
-4.9890 D'APPICCARE -0.3008
-4.2357 D'ARCHIBUGIO -0.2851
-4.4661 D'ARPIONI -0.3010
-4.1237 D'ARREMBAGGIO -0.3009
-4.2900 D'ASSALTO -0.2951
-4.6879 D'ASTUZIA -0.3010
-4.9890 D'ATTORNO -0.3007
-4.0347 D'AVER -0.3009
-4.4661 D'AVERTI -0.3010
-4.6210 D'ESSERE -0.3010
-4.3522 D'IMBARCARSI -0.3010
-4.6210 D'IMPEDIRE -0.2986
-4.5119 D'IMPEGNARE -0.2976
-4.3869 D'IMPICCARLO -0.3001
-4.6210 D'IMPRESSIONARE -0.2993
-4.4247 D'IMPROVVISO -0.2995
-4.4247 D'INCROCIARE -0.3005
-4.5119 D'INQUIETUDINE -0.2851
-4.3869 D'ODIO -0.2977
-4.5630 D'OLTRE -0.3010
-4.2357 D'ORA -0.3007
-4.1873 D'UCCELLI -0.2960
-4.4661 D'UMIDITà -0.2851
-3.4976 D'UN -0.3003
-3.5796 D'UNA -0.3008
-4.2620 D'UNO -0.3008
-4.7671 D'UOMINI -0.2851
-4.4661 D'UOMO -0.3001
-4.4661 D'UOPO -0.3008
-2.6004 DA -0.2884
-4.5119 DAGLI -0.3010
-3.5023 DAI -0.3005
-3.4884 DAL -0.3002
-4.5119 DALL'AFRICANO -0.3010
-4.2900 DALL'ALTO -0.2988
-4.6210 DALL'ALTRA -0.2995
-4.8640 DALL'ESTREMITà -0.2999
-4.3869 DALL'INSEPARABILE -0.3002
-4.5630 DALL'ODIO -0.3010
-4.3522 DALL'OLONESE -0.2851
-3.2593 DALLA -0.2994
-3.6532 DALLE -0.3000
-4.7671 DALLO -0.3010
-4.5630 DAMA -0.3000
-5.4661 DANIELA -0.2851
-5.4661 DANIELE -0.2851
-4.4247 DANNATA -0.3008
-4.0859 DANNATO -0.2998
-4.3522 DAPPERTUTTO -0.3008
-4.4247 DAPPRIMA -0.3008
-4.6210 DARANNO -0.3010
-4.1439 DARE -0.2808
-4.6210 DAREI -0.3008
-4.7671 DAREMO -0.3010
-5.4661 DARIO -0.2851
-4.6210 DARTI -0.3009
-4.4247 DARà -0.3002
-5.1651 DATA -0.2835
-4.2620 DATE -0.2900
-4.5119 DATECENE -0.3010
-3.9747 DATO -0.2996
-4.6210 DAVANTI -0.3006
-4.6210 DAVANZALE -0.3008
-5.4661 DAVIDE -0.2851
-3.8129 DE -0.3010
-4.6210 DEBBO -0.3010
-4.7671 DEBITO -0.3006
-5.4661 DEBORA -0.2851
-4.8640 DECIDERMI -0.2982
-4.5119 DECISERO -0.2995
-3.3231 DEGLI -0.3002
-2.7156 DEI -0.2974
-2.5762 DEL -0.2947
-4.2900 DELIRANTI -0.3006
-4.6210 DELITTI -0.2851
-4.4661 DELL'AGUARDIENTE -0.2851
-4.0347 DELL'ALBERO -0.2846
-4.0682 DELL'AMMIRAGLIO -0.3010
-4.5119 DELL'ARCHIBUGIO -0.2851
-4.5119 DELL'ASTRO -0.3010
-4.8640 DELL'AVVERSARIO -0.2851
-4.2900 DELL'EQUIPAGGIO -0.2851
-4.4661 DELL'INDIANO -0.2851
-4.4247 DELL'INDOMANI -0.2985
-4.1651 DELL'ISOLOTTO -0.2800
-4.5630 DELL'OLONESE -0.2975
-4.5119 DELL'OLONNE -0.3008
-4.3522 DELL'ORINOCO -0.2977
-4.5630 DELL'UCCISORE -0.3002
-4.6210 DELL'URAGANO -0.2851
-2.6100 DELLA -0.2963
-2.9919 DELLE -0.2992
-4.4247 DELLO -0.3010
-4.7671 DENTI -0.3010
-4.6210 DEPONENDO -0.2986
-4.5119 DEPONGONO -0.3003
-4.5119 DEPORRE -0.2976
-4.4661 DERIDERE -0.2993
-4.5119 DESIDERA -0.3010
-4.1873 DESIDERIO -0.2951
-4.3522 DESTINATI -0.2982
-3.9747 DESTINO -0.2837
-4.0037 DESTRA -0.2996
-4.0511 DETONAZIONE -0.2954
-4.5630 DETTATO -0.2851
-3.6879 DETTO -0.2876
-4.5119 DEV'ESSERE -0.2996
-4.6210 DEVASTATE -0.3009
-4.5630 DEVE -0.3010
-4.4661 DEVO -0.3010
-4.1651 DEVONO -0.3008
-1.9386 DI -0.2524
-3.6808 DIAVOLO -0.2771
-4.3200 DICE -0.2962
-3.5367 DICENDO -0.2808
-4.0682 DICENDOGLI -0.2837
-4.1873 DICEVA -0.2836
-4.6879 DICIOTTO -0.3009
-4.0682 DICO -0.2911
-3.6466 DIECI -0.2843
-4.5630 DIEDE -0.3004
-4.4247 DIEGO -0.3010
-4.4661 DIEPPE -0.2851
-3.6088 DIETRO -0.2854
-4.6879 DIFENDERCI -0.2977
-4.1873 DIFENDERLI -0.2837
-4.2900 DIFENDERSI -0.2850
-4.4247 DIFENDEVANO -0.2998
-4.6210 DIFENDIAMO -0.2996
-4.5119 DIFENDONO -0.2979
-4.0859 DIFENSORI -0.2965
-4.6879 DIFESA -0.2851
-4.5630 DIFESE -0.2999
-4.6879 DIFFICILE -0.2999
-4.5630 DILEGUATA -0.2851
-4.2900 DIMENANO -0.3004
-4.3869 DIMENTICARE -0.2962
-3.9098 DIMENTICATO -0.2775
-4.3522 DIMENTICAVO -0.2962
-5.4661 DIMINUISCI -0.3010
-5.4661 DIMMI -0.2851
-3.6466 DINANZI -0.2973
-4.2900 DIO -0.3001
-4.3522 DIPINGEVANO -0.3004
-4.6879 DIRAI -0.3001
-4.5630 DIRE -0.2851
-4.1237 DIREBBE -0.2962
-4.6210 DIRESSE -0.2982
-4.5119 DIRETTO -0.3006
-4.4661 DIREZIONE -0.3010
-4.3869 DIRIGA -0.2999
-4.4661 DIRIGENDOSI -0.3006
-4.6879 DIRIGERANNO -0.3009
-4.2108 DIRIGERSI -0.3006
-4.5630 DIRITTI -0.2977
-4.4661 DIRITTO -0.2960
-4.6210 DIRLO -0.2851
-4.6210 DIRMI -0.2982
-4.6210 DIRTI -0.2962
-4.3522 DIRVELO -0.2844
-4.3200 DISARMARVI -0.2977
-4.3200 DISCESA -0.3009
-5.4661 DISCHI -0.2851
-5.4661 DISCO -0.2851
-4.5630 DISFATTI -0.3010
-4.3869 DISGRAZIA -0.2962
-4.4661 DISGRAZIATAMENTE -0.3010
-4.5119 DISGRAZIATO -0.2962
-4.5630 DISOBBEDISCONO -0.3007
-4.2900 DISPENSA -0.2839
-4.3200 DISPERATA -0.2982
-4.2900 DISPERATAMENTE -0.2851
-4.1651 DISPERATO -0.2851
-4.5630 DISPETTO -0.3000
-4.6210 DISPIACE -0.3000
-5.4661 DISPOSITIVI -0.3010
-5.4661 DISPOSITIVO -0.3010
-4.2900 DISPOSIZIONE -0.2815
-4.2900 DISPREZZO -0.3010
-4.4247 DISS'EGLI -0.3010
-4.3200 DISS'ELLA -0.2986
-4.4247 DISSANGUANO -0.2851
-4.4661 DISSANGUATO -0.2999
-2.6118 DISSE -0.2681
-4.4247 DISSETARSI -0.2995
-4.4661 DISSI -0.2977
-3.6532 DISTANZA -0.2757
-4.3522 DISTANZE -0.2851
-4.6879 DISTAVANO -0.2962
-4.5630 DISTESI -0.3007
-4.1873 DISTINGUERE -0.3008
-4.5119 DISTINGUEVA -0.3010
-4.4661 DISTINTAMENTE -0.2993
-4.5630 DISTRAZIONI -0.3010
-4.5119 DISTRIBUITO -0.2998
-4.4247 DISTRUGGERò -0.2976
-4.4247 DISTRUTTA -0.2976
-4.5119 DITEMI -0.2951
-4.3869 DIVENISSE -0.3010
-4.3869 DIVENNE -0.3010
-3.8428 DIVENTARE -0.2949
-4.7671 DIVENTATA -0.3010
-3.5740 DIVENTATO -0.2996
-4.2108 DIVENTAVA -0.3005
-4.4661 DIVERRANNO -0.3001
-4.6879 DIVERREMO -0.3007
-4.5630 DIVERRà -0.2986
-4.3869 DIVIDIAMOCI -0.2977
-4.7671 DIVISE -0.2995
-4.5630 DIVISIONI -0.3002
-4.4247 DIVORA -0.3010
-4.9890 DIVORARE -0.3004
-4.8640 DIVORASSERO -0.2995
-4.3522 DOBBIAMO -0.3010
-4.8640 DOCUMENTI -0.2851
-4.5119 DODICI -0.3010
-4.5119 DOLCE -0.2962
-4.5119 DOLCEMENTE -0.3010
-4.3869 DOLCI -0.2948
-4.1439 DOLORE -0.2847
-4.4247 DOLORI -0.2996
-4.2900 DOMANDO -0.3009
-3.6273 DOMANI -0.2810
-5.4661 DOMENICO -0.2851
-4.3200 DOMESTICO -0.2851
-4.5119 DON -0.3010
-4.4661 DONATA -0.2976
-3.7849 DONNA -0.2709
-4.2108 DONNE -0.2850
-3.3942 DOPO -0.2727
-4.7671 DORMIRE -0.2851
-4.4661 DORMIVA -0.3006
-5.1651 DORSO -0.2851
-5.4661 DOV'è -0.2851
-3.6336 DOVE -0.2904
-4.3522 DOVENDO -0.3010
-4.4661 DOVERE -0.3010
-4.4247 DOVESSI -0.3005
-4.5630 DOVETE -0.3010
-3.9098 DOVEVA -0.3006
-4.0189 DOVEVANO -0.3006
-4.6879 DOVRò -0.3010
-4.5119 DOVUTO -0.3010
-5.1651 DOWNLOAD -0.2851
-4.5630 DRAPPELLI -0.2960
-3.9346 DRAPPELLO -0.2933
-5.4661 DRAW -0.2851
-4.5630 DUBITARE -0.2960
-4.3869 DUBITO -0.2961
-4.4247 DUCA -0.3007
-3.5853 DUCHESSA -0.2761
-2.8168 DUE -0.2713
-4.5119 DUECENTOCINQUANTA -0.3008
-4.5119 DUELLANTI -0.2851
-4.6879 DUELLO -0.3006
-3.8129 DUNQUE -0.2926
-4.1873 DURA -0.2993
-3.9346 DURANTE -0.2898
-4.3522 DURARE -0.2982
-4.4247 DURò -0.3009
-4.4247 Dà -0.2976
-4.4247 Dí -0.3006
-2.1112 E -0.2357
-4.1237 EBBE -0.2981
-4.9890 EBBENE -0.3007
-4.4661 ECCESSIVAMENTE -0.3010
-3.9220 ECCO -0.2942
-4.5630 ECCOCI -0.2995
-4.5119 ECCONE -0.2986
-4.4661 ECHEGGIANDO -0.3008
-4.2620 ECHEGGIARE -0.2936
-4.3200 ECHEGGIARONO -0.3008
-4.5119 ECHEGGIAVANO -0.3001
-3.8326 ECHEGGIò -0.3003
-4.3522 ECONOMICI -0.2851
-4.3869 ECONOMIZZANDO -0.2995
-2.6808 ED -0.2804
-5.4661 EDITOR -0.2851
-5.4661 EDOARDO -0.2851
-4.6210 EFFETTO -0.3007
-3.5071 EGLI -0.2940
-4.1651 EGUALE -0.2850
-4.5630 EGUALI -0.3010
-4.3200 EHI -0.2993
-5.4661 ELENA -0.2851
-5.4661 ELENCO -0.3010
-5.4661 ELEONORA -0.2851
-5.4661 ELISA -0.2851
-4.2900 ELLA -0.2985
-5.4661 EMANUELE -0.2851
-5.1651 EMILIA -0.2851
-4.4247 EMOZIONE -0.2851
-4.7671 ENERGICO -0.3004
-4.2900 ENORME -0.2948
-5.4661 ENRICO -0.2851
-4.1439 ENTRAMBI -0.2979
-4.0037 ENTRARE -0.2990
-4.4247 ENTRARONO -0.3010
-4.5630 ENTRERò -0.3007
-4.8640 ENTRIAMO -0.3007
-4.1873 ENTRO -0.2951
-4.3522 EPPURE -0.2818
-4.4661 EQUIPAGGI -0.3006
-4.1439 EQUIPAGGIO -0.2995
-2.5226 ERA -0.2812
-3.1377 ERANO -0.2924
-4.6210 ERASI -0.3010
-4.5630 ERAVAMO -0.3010
-4.5630 ERAVATE -0.3010
-4.3200 ERBE -0.2962
-4.4661 EREDITATO -0.2999
-4.4247 ERETTA -0.3007
-5.4661 ERICA -0.2851
-5.4661 ERIKA -0.2851
-4.5119 ERO -0.3009
-4.3522 ESALAZIONI -0.3010
-4.5119 ESALò -0.3010
-4.3869 ESAURITO -0.3010
-4.3869 ESAUSTI -0.2960
-5.1651 ESCI -0.2988
-4.4247 ESCLAMARONO -0.2951
-4.5119 ESCLAMAZIONE -0.2960
-3.5119 ESCLAMò -0.2933
-4.0189 ESECUZIONE -0.2911
-5.4661 ESEGUI -0.2851
-4.3200 ESEGUITA -0.3008
-4.5630 ESISTE -0.3006
-4.6879 ESITARE -0.2851
-4.4247 ESITAZIONE -0.2993
-4.1439 ESITO -0.2999
-4.6210 ESITò -0.3001
-4.5119 ESPORSI -0.3005
-4.5630 ESPORVI -0.2982
-4.4661 ESPOSTO -0.3007
-5.1651 ESPUGNARE -0.3009
-4.6210 ESPUGNATA -0.2976
-4.5119 ESPUGNATI -0.2993
-4.1044 ESSENDO -0.3010
-4.2900 ESSENDOVI -0.2960
-4.5119 ESSERCI -0.3009
-3.2566 ESSERE -0.2943
-4.6210 ESSERVI -0.2960
-4.1651 ESSI -0.3010
-4.6879 ESTRATTI -0.3007
-4.3200 ESTREMITà -0.2949
-4.5630 ESTREMO -0.3010
-4.3522 ETERNO -0.2851
-4.1439 EVITARE -0.2950
-5.1651 EXCEL -0.2851
-3.8533 FA -0.3008
-5.4661 FABIO -0.2851
-3.9346 FACCIA -0.2954
-4.5119 FACCIAMO -0.3010
-4.3200 FACCIO -0.2976
-3.7257 FACENDO -0.2967
-4.6210 FACESSERO -0.3008
-4.4661 FACESSI -0.2996
-4.2900 FACEVA -0.2957
-4.1237 FACILE -0.2999
-5.1651 FAI -0.3010
-5.1651 FALLIRAI -0.3008
-5.1651 FALLIRE -0.3008
-4.5119 FALò -0.3008
-3.8863 FAMA -0.2798
-4.4661 FAME -0.3010
-4.4247 FAMIGLIA -0.3001
-4.5630 FAMOSI -0.2977
-4.5119 FAMOSO -0.2960
-4.5630 FANALI -0.2960
-4.3522 FANCIULLA -0.2953
-4.5119 FANGO -0.3010
-3.8640 FANNO -0.2991
-4.5630 FANTASTICHE -0.2851
-4.7671 FANTASTICO -0.3010
-3.4208 FAR -0.2978
-4.6879 FARAI -0.3010
-3.9609 FARANNO -0.3000
-4.3522 FARCI -0.3010
-3.4054 FARE -0.2661
-4.5119 FAREI -0.3010
-3.8326 FAREMO -0.3005
-4.7671 FARESTE -0.3009
-3.9346 FARMI -0.3010
-4.2620 FARNE -0.2982
-4.1873 FARSI -0.2849
-4.1237 FARVI -0.2994
-3.9220 FARà -0.3010
-4.3869 FARò -0.3010
-4.6879 FASCI -0.2960
-4.3869 FASCINO -0.3010
-4.4247 FASTIDI -0.3000
-3.5740 FATALE -0.2748
-3.8640 FATE -0.3008
-4.4661 FATICA -0.2977
-4.0037 FATICHE -0.3008
-4.3200 FATTA -0.3009
-4.2900 FATTE -0.3010
-4.7671 FATTI -0.3010
-3.2486 FATTO -0.2696
-4.4661 FAZZOLETTO -0.2960
-4.5119 FEBBRE -0.3010
-4.4661 FEBBRI -0.2962
-3.5367 FECE -0.2982
-4.1873 FEDE -0.2957
-5.4661 FEDERICA -0.2851
-5.4661 FEDERICO -0.2851
-4.2620 FELICE -0.2960
-4.5119 FELICEMENTE -0.2976
-4.6879 FELICI -0.2993
-4.6210 FELTRO -0.3006
-4.5119 FEMMINE -0.3010
-4.4247 FERITA -0.2999
-4.1044 FERITE -0.2800
-4.5630 FERITI -0.2800
-4.4247 FERITO -0.2982
-4.9890 FERMA -0.2916
-4.8640 FERMANDOSI -0.3010
-4.6210 FERMATEVI -0.3010
-4.3522 FERMERà -0.3010
-4.3869 FERMO -0.3004
-4.1439 FERMò -0.3009
-4.0189 FEROCE -0.2842
-4.6879 FERRAIUOLO -0.3006
-5.4661 FERRARA -0.2851
-4.2900 FERRI -0.2851
-4.8640 FERRO -0.2985
-4.5630 FERVEVA -0.3005
-4.5119 FETONTI -0.2962
-4.4661 FIAMMA -0.3001
-4.6879 FIAMME -0.2851
-3.4169 FIAMMINGA -0.2726
-4.5119 FIAMMINGHE -0.3010
-4.5630 FIAMMINGO -0.2996
-4.4661 FIANCO -0.3002
-4.5630 FIANDRA -0.2997
-4.4661 FIASCHETTA -0.3010
-4.5630 FIASCHETTE -0.3002
-4.5119 FIDANZATO -0.3010
-4.4661 FIDI -0.2982
-4.8640 FIDUCIA -0.3008
-4.5630 FIERA -0.3010
-4.3522 FIERE -0.2850
-4.9890 FIEREZZA -0.2851
-4.6879 FIERI -0.3010
-4.0859 FIERO -0.2989
-4.1044 FIGLIA -0.2948
-4.5119 FIGLIO -0.2999
-4.2357 FIGURA -0.3000
-4.5630 FILE -0.2850
-5.1651 FILES -0.2851
-4.6879 FILI -0.3010
-4.3522 FILIBUSTERIA -0.2816
-4.4247 FILIBUSTIERA -0.2851
-3.3200 FILIBUSTIERE -0.2661
-3.0969 FILIBUSTIERI -0.2679
-5.4661 FILIPPO -0.2851
-4.2357 FILO -0.2960
-4.6210 FILOSOFIA -0.3010
-4.4247 FIN -0.3010
-4.4661 FINCHé -0.3010
-4.1873 FINE -0.2928
-4.0682 FINESTRA -0.2816
-4.6210 FINIRANNO -0.3010
-4.5630 FINIRE -0.2993
-4.6210 FINISCA -0.3010
-4.1237 FINITA -0.2966
-4.6210 FINIVA -0.2960
-3.6952 FINO -0.2979
-4.4247 FIOCA -0.3004
-4.8640 FIOCHE -0.2851
-4.6210 FIORI -0.2977
-5.4661 FIREFOX -0.2851
-5.4661 FIRENZE -0.2851
-4.5630 FISCHIETTO -0.2999
-4.6210 FISSATO -0.2951
-4.4661 FISSI -0.3007
-3.9747 FISSO -0.2773
-4.1873 FITTA -0.3009
-4.1439 FITTI -0.3009
-4.2357 FITTO -0.2999
-4.2108 FLAUTO -0.2960
-4.3522 FLEBILI -0.3010
-4.3200 FLOTTA -0.2960
-4.4661 FLUTTI -0.3010
-4.4661 FOCA -0.2851
-4.4661 FOCE -0.2999
-5.4661 FOGGIA -0.2851
-4.3869 FOGLIAME -0.2851
-3.9220 FOGLIE -0.2819
-5.4661 FOGLIO -0.2960
-3.3623 FOLGORE -0.2714
-4.2357 FOLTE -0.3010
-4.6210 FOLTISSIME -0.2962
-4.7671 FOLTISSIMO -0.2977
-4.0859 FOLTO -0.2999
-4.3200 FONDO -0.2845
-4.5119 FORANO -0.2851
-3.8326 FORCA -0.2850
-3.2434 FORESTA -0.2777
-4.0682 FORESTE -0.2979
-5.4661 FORLì -0.2851
-4.2108 FORMA -0.3010
-4.3522 FORMANDO -0.3006
-4.0859 FORMATO -0.2984
-4.7671 FORMAVA -0.2996
-4.4247 FORME -0.3010
-4.3869 FORMICHE -0.3010
-3.7501 FORMIDABILE -0.2986
-4.6210 FORMIDABILI -0.3001
-4.5119 FORNITI -0.2993
-4.2620 FORS'ANCHE -0.2960
-3.0950 FORSE -0.2716
-3.7501 FORTE -0.2746
-3.7337 FORTI -0.2815
-3.9220 FORTUNA -0.2935
-4.0511 FORTUNATAMENTE -0.3002
-4.3200 FORTUNATO -0.2851
-4.0037 FORZA -0.2850
-4.6210 FORZATO -0.2851
-4.0347 FORZE -0.2851
-4.0859 FOSFORESCENTE -0.2843
-3.4575 FOSSE -0.2989
-4.1237 FOSSERO -0.3008
-4.3522 FOSSI -0.3004
-5.4661 FOTO -0.2851
-3.0236 FRA -0.2835
-4.5119 FRACASSANO -0.2951
-4.8640 FRACASSARCI -0.2995
-4.6210 FRACASSARLE -0.2976
-4.8640 FRACASSO -0.3010
-4.0859 FRAGORI -0.2846
-4.5630 FRAGOROSAMENTE -0.3007
-5.4661 FRANCESCA -0.2851
-5.4661 FRANCESCO -0.2851
-4.4661 FRANCESE -0.2960
-4.4661 FRAPPORRE -0.2996
-4.1873 FRASE -0.2850
-3.4016 FRATELLI -0.2745
-3.4367 FRATELLO -0.2713
-4.0511 FRECCE -0.2843
-4.2108 FRECCIA -0.3005
-3.8226 FREDDO -0.2833
-4.6210 FREMERE -0.3010
-3.9890 FREMITO -0.2949
-4.5630 FRENAVA -0.2982
-4.5630 FRENO -0.2851
-4.5119 FRESCHE -0.3010
-3.9098 FRETTA -0.2798
-5.4661 FRIULI -0.3010
-3.5023 FRONTE -0.2767
-4.3869 FRUGARE -0.2995
-4.5630 FRUGATA -0.3010
-4.6210 FRUTTA -0.3010
-3.4575 FU -0.2948
-4.5630 FUCILANO -0.3009
-4.3869 FUCILARE -0.2851
-3.9609 FUCILE -0.2838
-4.3869 FUCILERà -0.3005
-3.7501 FUCILI -0.2789
-4.0511 FUGA -0.2851
-4.4661 FUGGA -0.3009
-4.6210 FUGGE -0.2851
-4.6879 FUGGENDO -0.2977
-4.7671 FUGGIAMO -0.3010
-3.6400 FUGGIASCHI -0.2818
-4.5119 FUGGIRANNO -0.2851
-3.7102 FUGGIRE -0.2815
-4.5119 FUGGIVA -0.2982
-4.6210 FUGGí -0.2982
-4.7671 FULMINE -0.3010
-4.5119 FULMININO -0.2998
-4.4661 FUMO -0.2928
-4.6210 FUNE -0.3006
-4.5630 FUOCHI -0.2960
-3.3200 FUOCO -0.2716
-4.1044 FUORI -0.2948
-4.5630 FURBO -0.3009
-4.1237 FURFANTE -0.2960
-4.1044 FURIA -0.2840
-4.7671 FURIBONDI -0.2851
-4.1651 FURIOSAMENTE -0.2977
-4.5630 FURIOSO -0.3010
-4.0037 FURONO -0.3010
-3.7849 FURORE -0.2833
-4.5630 GABBIA -0.3010
-5.4661 GABRIELE -0.2851
-4.3869 GAGLIARDI -0.2960
-5.4661 GAIA -0.2851
-4.5119 GALANTEMENTE -0.2951
-4.5119 GAMBA -0.3010
-4.1237 GAMBE -0.2850
-4.5630 GATTI -0.2996
-4.4661 GATTO -0.2851
-5.4661 GEDIT -0.2851
-4.3522 GEMITI -0.3010
-4.5119 GEMITO -0.2851
-4.6210 GENEROSITà -0.2960
-4.4247 GENEROSO -0.2999
-5.4661 GENOVA -0.2851
-4.4247 GENTE -0.2962
-4.3200 GENTILEZZA -0.2999
-4.6210 GENTILUOMINI -0.2985
-3.9476 GENTILUOMO -0.2841
-5.1651 GESTIONE -0.3002
-4.5630 GESTO -0.2976
-4.5630 GETTA -0.3007
-4.5630 GETTAMI -0.2976
-4.9890 GETTANDO -0.3010
-4.8640 GETTARCI -0.3008
-4.7671 GETTATE -0.2995
-4.5630 GETTATI -0.2982
-4.6879 GETTATO -0.2982
-4.9890 GETTERò -0.3010
-4.5630 GIACCA -0.3001
-3.9220 GIACCHé -0.2915
-4.6210 GIACEVANO -0.3009
-5.4661 GIACOMO -0.2851
-5.4661 GIADA -0.2851
-4.1873 GIAGUARI -0.2990
-4.0511 GIAGUARO -0.3003
-5.4661 GIANLUCA -0.2851
-4.6879 GIARDINO -0.3004
-3.4169 GIBRALTAR -0.2754
-4.9890 GIGANTE -0.2962
-4.4247 GIGANTESCHE -0.2851
-4.6210 GIGANTI -0.2851
-5.4661 GIMP -0.2851
-4.4247 GIOCATO -0.3009
-4.4661 GIOCHERELLANDO -0.3006
-4.5630 GIOCO -0.3008
-3.9476 GIOIA -0.2830
-5.4661 GIORGIA -0.2851
-5.4661 GIORGIO -0.2851
-4.3200 GIORNATA -0.3008
-3.6532 GIORNI -0.2827
-3.5367 GIORNO -0.2932
-3.2843 GIOVANE -0.2783
-5.4661 GIOVANNI -0.2851
-4.8640 GIRARLO -0.2977
-4.5119 GIUDICE -0.2960
-5.4661 GIUGLIANO -0.2995
-5.1651 GIULIA -0.2851
-5.4661 GIULIO -0.2851
-4.6210 GIUNGANO -0.3003
-4.6879 GIUNGERANNO -0.2982
-3.6273 GIUNGERE -0.2983
-4.6879 GIUNGEREMO -0.2995
-4.4661 GIUNGERà -0.3010
-4.6210 GIUNGERò -0.3009
-4.0682 GIUNSE -0.2984
-4.6210 GIUNSERO -0.3009
-4.3869 GIUNTA -0.2976
-4.4247 GIUNTE -0.2982
-4.2357 GIUNTI -0.2995
-3.9890 GIUNTO -0.2965
-4.6879 GIUOCARE -0.2960
-4.2108 GIURAMENTO -0.3003
-4.1651 GIURATO -0.2960
-4.4247 GIURO -0.3005
-5.4661 GIUSEPPE -0.2851
-3.2434 GIà -0.2896
-4.1873 GIú -0.2934
-4.4661 GL'INTERRUPPE -0.2976
-2.6512 GLI -0.2918
-4.1439 GLIELA -0.3010
-4.7671 GLIELO -0.3010
-4.4661 GOCCE -0.2960
-4.2900 GOCCIA -0.2798
-4.4661 GODA -0.3010
-4.4661 GOFFO -0.3010
-4.1651 GOLA -0.2843
-3.5796 GOLFO -0.2845
-5.1651 GOOGLE -0.2851
-4.5630 GOTE -0.2997
-3.3797 GOVERNATORE -0.2625
-4.3200 GRADIRETE -0.2996
-4.6210 GRAFFIATURA -0.2851
-3.6273 GRAN -0.3008
-3.9098 GRANADA -0.2849
-4.4661 GRAND -0.2986
-4.5630 GRAND'ALBERO -0.2851
-3.6952 GRANDE -0.3005
-4.3522 GRANDI -0.3010
-4.6879 GRANDINE -0.2960
-4.5119 GRAVE -0.2851
-4.0511 GRAVI -0.2999
-4.3522 GRAZIA -0.3009
-4.3200 GRAZIE -0.2994
-4.5119 GRAZIOSO -0.3010
-5.4661 GRETA -0.2851
-4.2357 GRIDA -0.2822
-4.3200 GRIDANDO -0.2822
-4.4247 GRIDARONO -0.2993
-3.9890 GRIDATO -0.2776
-3.5216 GRIDO -0.2774
-3.4491 GRIDò -0.2730
-4.8640 GRILLETTO -0.3002
-4.3522 GRONDAVA -0.3004
-4.2620 GROSSE -0.3010
-4.2620 GROSSI -0.3010
-4.2620 GROSSO -0.2996
-4.5630 GROTTESCAMENTE -0.3009
-4.7671 GRUPPETTI -0.3010
-4.3200 GUADAGNARE -0.2996
-4.5630 GUADAGNATO -0.2951
-4.6210 GUANCE -0.2851
-4.2108 GUARDA -0.2984
-3.7759 GUARDANDO -0.2944
-4.5630 GUARDANDOLO -0.3010
-4.8640 GUARDANO -0.3006
-4.5630 GUARDARE -0.3001
-3.8033 GUARDATE -0.3003
-3.8226 GUARDAVA -0.2978
-4.6210 GUARDI -0.3009
-3.8033 GUARDIA -0.2950
-3.9747 GUARDò -0.2788
-4.3869 GUARIRE -0.2851
-4.4247 GUARISCONO -0.2995
-4.4247 GUASTATO -0.3009
-4.5630 GUASTI -0.3010
-3.8979 GUERRA -0.2806
-4.6879 GUIDA -0.2977
-4.9890 GUIDATA -0.3009
-4.6210 GUIDATI -0.2999
-4.6210 GUIDAVA -0.2998
-4.5630 GUIDO -0.2851
-3.1398 GULD -0.2610
-4.0511 GULE -0.2996
-4.5630 GUSCI -0.2960
-2.9761 HA -0.2893
-3.8226 HAI -0.2967
-4.2357 HAITI -0.2850
-3.3762 HANNO -0.2966
-3.2255 HO -0.2921
-4.5630 HONORATA -0.3010
-2.3968 I -0.2958
-4.3200 IDEA -0.3003
-4.1439 IERI -0.2850
-4.5630 IGNORATE -0.3007
-4.6210 IGNORAVAMO -0.2998
-1.8696 IL -0.2887
-5.4661 ILARIA -0.2851
-4.4661 ILLUMINATA -0.2851
-4.6210 ILLUMINAVA -0.2993
-4.6210 IMBARAZZATO -0.3008
-4.5119 IMBARCANDO -0.3010
-4.4661 IMBARCARCI -0.2851
-4.5630 IMBARCARE -0.2951
-4.7671 IMBARCAZIONI -0.2997
-4.5630 IMBOCCATO -0.2951
-4.0511 IMBOSCATA -0.2851
-4.2900 IMBOSCATI -0.3001
-4.5630 IMBROGLIA -0.2976
-5.1651 IMMAGINI -0.2851
-4.5119 IMMENSA -0.3010
-4.2357 IMMENSO -0.3001
-5.4661 IMMERSE -0.2976
-3.9220 IMMERSO -0.2994
-4.3522 IMMISCHIARSENE -0.2851
-3.9098 IMMOBILE -0.2965
-4.3200 IMMOBILI -0.3010
-4.5119 IMMOBILITà -0.3010
-4.4661 IMPALLIDí -0.3010
-4.0859 IMPALMARE -0.2976
-4.5119 IMPARENTARSI -0.2962
-4.4661 IMPARENTATA -0.2960
-4.6210 IMPASSIBILE -0.3000
-4.4661 IMPAZIENTE -0.2960
-4.4661 IMPEDENDOGLI -0.2960
-4.1439 IMPEDIRE -0.3004
-4.5119 IMPEDIRGLI -0.2960
-4.8640 IMPEDISCANO -0.2851
-4.4247 IMPEGNARE -0.2996
-4.0682 IMPEGNATA -0.2996
-4.6210 IMPEGNATO -0.3006
-4.7671 IMPERIOSA -0.3010
-4.4661 IMPERLARONO -0.2976
-4.5630 IMPERVERSANO -0.3009
-4.3869 IMPETO -0.2957
-4.2620 IMPLACABILE -0.2851
-4.6879 IMPORTUNARCI -0.3003
-3.9098 IMPOSSIBILE -0.2958
-4.7671 IMPOSTAZIONI -0.2988
-4.6210 IMPOSTE -0.2977
-4.8640 IMPRATICABILE -0.3010
-5.4661 IMPRESS -0.2851
-4.3869 IMPRESSIONATO -0.2851
-4.6210 IMPRIGIONARE -0.2977
-4.5630 IMPROVVISA -0.3010
-3.9476 IMPROVVISAMENTE -0.3005
-4.5119 IMPROVVISATA -0.2851
-4.0189 IMPROVVISO -0.2850
-4.2108 IMPUGNANDO -0.2961
-2.4491 IN -0.2896
-4.6879 INASPETTATA -0.2851
-4.4661 INCALZANDO -0.3008
-4.6210 INCALZANDOLO -0.2998
-4.5630 INCANTA -0.2851
-4.6210 INCAPACE -0.3010
-4.8640 INCARICATI -0.2960
-4.6210 INCENDIATE -0.2995
-4.5630 INCHINANDOSI -0.3010
-4.1873 INCHINO -0.2849
-4.6879 INCHIODATI -0.3010
-5.4661 INCOLLA -0.2951
-4.5630 INCOLPARMI -0.2851
-4.4661 INCONTRARE -0.2993
-4.3522 INCONTRATI -0.2995
-4.4661 INCONTRATO -0.2851
-4.5119 INCONTREREMO -0.2982
-4.3200 INCONTRI -0.2977
-4.3869 INCONTRINO -0.3008
-4.1651 INCONTRO -0.3003
-4.3869 INCREDIBILE -0.3009
-4.3869 INCROCIANTE -0.3008
-3.9476 INDIANI -0.2794
-4.1873 INDIANO -0.2795
-4.3869 INDICA -0.2961
-4.2357 INDICANDO -0.2976
-4.4661 INDICATA -0.2851
-4.5119 INDICAVANO -0.2995
-4.6210 INDIETREGGEREMO -0.3010
-4.9890 INDIETREGGIAVANO -0.3010
-3.8640 INDIETRO -0.2846
-4.4247 INDIFESA -0.2851
-4.6210 INDIRIZZO -0.3010
-4.4661 INDOSSA -0.2995
-4.2108 INDOSSO -0.2966
-4.3522 INDOVINARE -0.2951
-4.5630 INDUGIARE -0.2851
-4.6879 INDUGIATO -0.3004
-4.1873 INERME -0.2963
-4.1044 INFAME -0.2850
-4.4247 INFATTI -0.2951
-4.3869 INFERIORE -0.2851
-3.9609 INFERNALE -0.2848
-4.2357 INFINITE -0.3010
-4.3869 INFITTE -0.2851
-4.7671 INFORMAZIONI -0.3010
-4.6210 INFURIA -0.3000
-4.4661 INGANNARE -0.2976
-4.5630 INGANNO -0.2851
-4.5119 INGHIOTTITO -0.2851
-4.5119 INGINOCCHIATI -0.3007
-4.4247 INGOMBRANO -0.2976
-4.7671 INGOMBRAVANO -0.3010
-5.4661 INIZIA -0.2976
-3.5740 INNANZI -0.2798
-4.4247 INOLTRARMI -0.2999
-4.2900 INQUIETATEVI -0.2996
-4.3869 INQUIETAVA -0.2951
-4.6210 INQUIETO -0.3006
-4.5630 INQUILINI -0.2851
-4.6879 INSEGUIMENTO -0.2851
-4.7671 INSEGUIREMO -0.3010
-4.4247 INSEGUIRLO -0.3010
-4.0859 INSEGUITI -0.2849
-4.6210 INSETTI -0.2851
-4.5119 INSIEME -0.3007
-4.5630 INSIGNIFICANTI -0.2851
-4.6210 INSISTIATE -0.2996
-3.7027 INTANTO -0.2893
-4.0682 INTENZIONE -0.2960
-4.3522 INTERA -0.3010
-4.5630 INTERNET -0.2851
-4.6210 INTERROGARE -0.2951
-4.9890 INTERVENTO -0.3010
-4.5630 INTESTINI -0.2851
-4.5119 INTIMAZIONE -0.2960
-4.4661 INTORNO -0.3006
-4.2900 INTRAPRENDERE -0.3006
-4.6879 INTREPIDI -0.2851
-3.9220 INUTILE -0.2798
-4.3869 INVADERE -0.2999
-4.5630 INVASA -0.2999
-4.5630 INVASO -0.2985
-3.2460 INVECE -0.2668
-4.4661 INVESTITA -0.2851
-4.4661 INVETTIVE -0.2851
-5.4661 INVIA -0.2996
-4.5119 INVITATI -0.2851
-4.5630 INVITò -0.2998
-4.6210 INVOLONTARIAMENTE -0.2986
-2.6744 IO -0.2774
-5.4661 IP -0.2851
-5.4661 IRENE -0.2851
-4.6879 IRONICAMENTE -0.2851
-4.3869 IRREFRENABILE -0.3010
-4.7671 IRRESISTIBILE -0.2851
-4.3869 IRROMPONO -0.3009
-4.5119 ISOLATA -0.2851
-4.8640 ISPEZIONò -0.3009
-4.6879 ISSARE -0.2993
-4.5630 ISSò -0.3006
-3.6088 ISTANTE -0.2747
-3.6737 ISTANTI -0.2794
-4.4661 ISTINTO -0.2962
-4.2900 JACARé -0.2998
-5.4661 JACOPO -0.2851
-5.4661 JESSICA -0.2851
-4.5119 JUAN -0.3010
-4.4247 L'ABITO -0.2962
-4.3522 L'ABITUDINE -0.2960
-4.4661 L'ACCAMPAMENTO -0.3002
-3.9890 L'ACQUA -0.3001
-4.6210 L'AFFARE -0.3009
-4.5630 L'AFFIDO -0.3010
-3.8979 L'AFRICANO -0.2839
-4.0347 L'ALBA -0.2973
-4.4661 L'ALLARME -0.3010
-4.5630 L'ALTRA -0.3007
-3.5367 L'ALTRO -0.2778
-4.5630 L'AMARE -0.2996
-3.6808 L'AMBURGHESE -0.2799
-4.3522 L'AMICO -0.2986
-4.4661 L'AMMIRAGLIO -0.2851
-4.6879 L'ANCORAGGIO -0.2851
-4.3200 L'ANGOLO -0.2999
-4.4247 L'ANIMA -0.2960
-4.2620 L'ANIMALE -0.3010
-4.2620 L'ARCHIBUGIO -0.2996
-4.4661 L'ARIA -0.3010
-4.4661 L'ARMA -0.2977
-4.7671 L'ASSALTO -0.3002
-4.0859 L'ASSASSINO -0.3002
-4.2620 L'ASSEDIO -0.3009
-4.6210 L'ATTACCO -0.3000
-4.3869 L'ATTITUDINE -0.3010
-4.3869 L'AUDACE -0.2962
-4.6210 L'AVESSE -0.3010
-4.3200 L'AVEVA -0.3010
-4.3869 L'AVREBBERO -0.2982
-4.5630 L'AVRETE -0.2982
-4.0189 L'AVVENTURIERO -0.2824
-4.3869 L'ECO -0.2985
-4.5119 L'EGUAL -0.3010
-3.8979 L'EQUIPAGGIO -0.2974
-4.6210 L'ESPLOSIONE -0.3006
-4.6210 L'ESTREMITà -0.2999
-4.5630 L'HAI -0.3008
-3.6952 L'HO -0.3007
-4.2108 L'IDEA -0.2984
-4.8640 L'IMBARCAZIONE -0.3004
-4.6210 L'IMPRESA -0.2851
-4.6879 L'INCARICO -0.2960
-4.4661 L'INDIANO -0.2851
-4.5630 L'INDOMANI -0.2851
-4.4247 L'INTERA -0.3010
-4.4247 L'INVIDIABILE -0.3010
-4.6879 L'ISOLA -0.2851
-4.5119 L'ISTANTE -0.2996
-4.1237 L'OCCASIONE -0.2960
-4.6210 L'OCEANO -0.3010
-4.5630 L'ODIO -0.3010
-4.2900 L'ODORE -0.2951
-3.5796 L'OLONESE -0.2687
-4.7671 L'OPPOSTA -0.3010
-4.3522 L'ORDINE -0.3010
-4.6210 L'UCCISORE -0.3002
-4.8640 L'ULTIMA -0.3009
-4.5119 L'ULTIMO -0.3010
-3.9890 L'UNA -0.2955
-4.5119 L'UNO -0.3008
-4.0037 L'UOMO -0.2952
-4.6210 L'URAGANO -0.2960
-2.0995 LA -0.2917
-3.8533 LABBRA -0.2940
-4.2900 LACCIO -0.3010
-4.4247 LADRONE -0.3004
-4.6879 LADRONI -0.2960
-4.0037 LAGGIú -0.2778
-4.2620 LAGHETTO -0.2851
-3.8750 LAGO -0.2797
-4.5630 LAGUNA -0.2851
-4.3200 LAMA -0.2960
-4.4247 LAMANTINI -0.3010
-4.3522 LAMENTI -0.2851
-4.5630 LAMPI -0.3010
-3.9609 LAMPO -0.3000
-4.8640 LANCIA -0.3010
-4.6210 LANCIANDO -0.3007
-4.5630 LANCIANDOSI -0.3006
-4.6210 LANCIARSI -0.3004
-4.5119 LANCIATA -0.3008
-4.7671 LANCIATO -0.2951
-4.6879 LANCIò -0.3009
-3.7027 LARGO -0.2968
-4.3869 LASCERANNO -0.3009
-4.8640 LASCEREMO -0.2951
-4.6879 LASCERETE -0.3010
-4.5630 LASCERà -0.3010
-4.5119 LASCI -0.3010
-4.8640 LASCIA -0.3009
-4.4661 LASCIAMO -0.2993
-4.7671 LASCIANDO -0.3002
-4.5119 LASCIANDOLO -0.3010
-4.6210 LASCIANDOSI -0.3010
-4.1651 LASCIANO -0.2992
-4.4247 LASCIARCI -0.3010
-3.8979 LASCIARE -0.2865
-4.5119 LASCIARLA -0.3010
-4.6210 LASCIARONO -0.3010
-4.4661 LASCIARVI -0.2850
-4.7671 LASCIASSI -0.3010
-4.0347 LASCIATE -0.2992
-4.6879 LASCIATEVI -0.3010
-5.1651 LASCIATI -0.3008
-3.8863 LASCIATO -0.2951
-4.5119 LASCIEREMO -0.2995
-4.4247 LASCIO -0.2976
-4.1439 LASCIò -0.2951
-4.3522 LASSú -0.2993
-5.4661 LATINA -0.2851
-4.3200 LATTE -0.2851
-4.8640 LATTIGINOSA -0.3010
-5.4661 LAURA -0.2851
-5.4661 LAZIO -0.2851
-4.5630 LAZO -0.2851
-2.4433 LE -0.2946
-4.8640 LEGANDO -0.3010
-4.4247 LEGARE -0.2996
-4.8640 LEGATE -0.2851
-4.2900 LEGATO -0.2845
-4.5630 LEGGERA -0.3004
-4.1873 LEGGERMENTE -0.3010
-4.0859 LEGGI -0.2725
-4.3522 LEGHEREMO -0.3004
-4.5630 LEGHERò -0.3006
-4.2900 LEGNA -0.2945
-4.1651 LEGNATE -0.2800
-4.2108 LEGNI -0.3010
-4.2357 LEGNO -0.2899
-4.4661 LEI -0.2851
-4.4661 LENTAMENTE -0.2960
-5.4661 LEONARDO -0.2851
-4.5630 LEONE -0.3001
-4.3522 LEONI -0.2975
-3.8979 LERMA -0.2841
-4.3200 LESTO -0.2982
-4.6210 LEVANDOSI -0.2951
-4.9890 LEVARCI -0.3010
-4.4661 LEVATI -0.2995
-4.4247 LEVATO -0.2851
-4.5119 LEVAVA -0.3010
-3.3589 LI -0.3002
-5.4661 LIANE -0.2851
-4.6879 LIBBRE -0.3007
-4.3522 LIBERA -0.2851
-4.3200 LIBERI -0.2977
-4.3869 LIBERO -0.2911
-4.1237 LIBERTà -0.2847
-4.5119 LICENZA -0.2851
-4.4247 LIETO -0.2960
-4.5630 LIEVE -0.3010
-5.4661 LIGURIA -0.2851
-4.5119 LIMITANO -0.2982
-4.2357 LINEA -0.2954
-4.5630 LINFA -0.2851
-4.3522 LINGUA -0.2851
-4.5630 LIQUIDI -0.3010
-5.4661 LISA -0.2851
-5.4661 LIVORNO -0.2851
-2.6843 LO -0.2951
-5.4661 LOMBARDIA -0.2851
-4.8640 LONTANA -0.2960
-4.7671 LONTANANZA -0.3010
-4.2620 LONTANI -0.2848
-3.7257 LONTANO -0.2963
-5.4661 LORENZO -0.2851
-2.8739 LORO -0.2662
-3.6599 LOTTA -0.2786
-5.4661 LUCA -0.2851
-4.4247 LUCCIOLE -0.3004
-4.1873 LUCE -0.2851
-5.4661 LUCIA -0.2851
-5.4661 LUCIANO -0.2851
-4.6210 LUGUBRE -0.2999
-3.2434 LUI -0.2694
-5.4661 LUIGI -0.2851
-4.3522 LUME -0.3010
-4.1439 LUMINOSE -0.2851
-4.2620 LUMINOSI -0.3000
-4.4661 LUNA -0.3010
-4.1439 LUNGA -0.2973
-4.3200 LUNGAMENTE -0.3008
-4.0859 LUNGHE -0.2982
-4.3522 LUNGHI -0.3010
-3.7257 LUNGO -0.2798
-4.3869 LUOGHI -0.3010
-4.4661 LUOGO -0.2851
-3.8863 LUOGOTENENTE -0.2806
-3.7337 Là -0.2955
-4.6210 Lí -0.3001
-4.5630 M'ABBIATE -0.3008
-4.2900 M'AVEVA -0.3008
-4.6210 M'AVREBBE -0.3010
-4.3869 M'INGANNO -0.2995
-2.8326 MA -0.2504
-4.4247 MACCHIA -0.2996
-4.1873 MACCHIE -0.2850
-4.3200 MACCHIONI -0.2851
-4.1044 MACIGNI -0.2850
-4.2108 MAESTRA -0.2816
-4.5630 MAESTRO -0.3010
-4.3869 MAGGIOR -0.3010
-4.2900 MAGGIORE -0.2850
-4.2108 MAGGIORI -0.2798
-4.6210 MAGHI -0.3000
-4.2357 MAGRO -0.3010
-3.5418 MAI -0.2803
-5.1651 MAIL -0.2851
-4.4661 MAL -0.2960
-3.8033 MALE -0.2819
-4.3200 MALEDETTA -0.3008
-4.5630 MAN -0.3010
-4.2108 MANCA -0.3010
-4.1651 MANCANZA -0.2960
-4.4661 MANCARE -0.3007
-4.3869 MANCASSERO -0.2851
-5.1651 MANCATE -0.3007
-4.0347 MANCAVANO -0.2813
-4.5630 MANCHEREMO -0.2960
-4.6879 MANCO -0.2962
-4.0511 MANDARE -0.2986
-4.4247 MANDARLO -0.2982
-4.8640 MANDARMI -0.3010
-3.8326 MANDATO -0.2984
-4.4247 MANDEREMO -0.2965
-4.7671 MANDERò -0.2982
-4.4247 MANGEREMO -0.2847
-4.3522 MANGERà -0.2993
-4.4247 MANGI -0.2999
-4.2900 MANGIARE -0.2850
-4.4661 MANGIARSI -0.2998
-4.8640 MANGIATA -0.3009
-4.5119 MANGIATO -0.3009
-3.4661 MANI -0.2759
-3.3108 MANO -0.2599
-4.3522 MANOVRANDOLO -0.2998
-4.8640 MANTELLO -0.2851
-4.5630 MANTENERE -0.2951
-5.4661 MANUEL -0.2851
-4.1651 MARACAIBO -0.3009
-3.1522 MARACAYBO -0.2684
-5.4661 MARCHE -0.2851
-4.5119 MARCIA -0.3008
-4.2900 MARCIAMO -0.3010
-4.6210 MARCIARE -0.3010
-4.6879 MARCIAVA -0.3010
-4.6210 MARCIO -0.2962
-5.4661 MARCO -0.2851
-3.2958 MARE -0.2728
-4.2108 MARGINE -0.2949
-5.4661 MARIA -0.2851
-3.6336 MARINAI -0.2778
-3.8863 MARINAIO -0.2947
-4.5119 MARITI -0.2851
-4.5119 MARMELLATA -0.2851
-4.7671 MAROSI -0.2976
-5.4661 MARTA -0.2851
-4.4247 MARTELLANO -0.3004
-5.4661 MARTINA -0.2851
-4.4661 MASSA -0.3010
-4.3522 MASSE -0.3003
-4.7671 MASSICCI -0.3010
-4.5630 MASSIMO -0.2976
-4.5119 MASSO -0.2999
-4.4661 MASTICANDO -0.3010
-4.6210 MASTRI -0.2977
-4.3522 MASTRO -0.2850
-4.9890 MATRIMONI -0.3002
-5.4661 MATTEO -0.2851
-5.4661 MATTIA -0.2851
-4.7671 MATTINA -0.2851
-4.6210 MATTINIERI -0.3010
-4.4247 MATURAZIONE -0.2851
-4.9890 MAZZA -0.3010
-4.3869 MAZZE -0.2977
-3.2593 ME -0.2684
-4.1044 MEDESIMO -0.3007
-5.4661 MEDIA -0.2851
-4.5119 MEDITABONDA -0.2851
-3.7849 MEGLIO -0.2901
-4.5119 MELMOSO -0.3010
-4.0859 MEMBRA -0.2850
-4.6879 MEMORIA -0.3009
-4.1237 MENO -0.2850
-4.6879 MENTI -0.3010
-4.3522 MENTITO -0.3010
-4.5119 MENTO -0.3010
-3.3017 MENTRE -0.2846
-4.3869 MERAVIGLIOSO -0.2851
-4.4661 MESCOLATA -0.2982
-4.7671 MESCOLAVANO -0.2995
-4.2357 MESSI -0.2982
-4.5119 MESSICANO -0.2979
-5.4661 MESSINA -0.2851
-4.0189 MESSO -0.2961
-4.5119 METALLICA -0.2962
-4.1651 METICCE -0.2850
-4.3200 METRI -0.2850
-4.6879 METRO -0.3001
-4.7671 METTERAI -0.2996
-3.9220 METTERE -0.2954
-3.9890 METTEREMO -0.2994
-4.1237 METTERVI -0.3009
-4.6210 METTI -0.2982
-4.5630 METTO -0.3010
-4.3869 MEZZ'ORA -0.3010
-4.6879 MEZZA -0.3007
-4.3200 MEZZANOTTE -0.3010
-4.5119 MEZZI -0.2996
-3.5216 MEZZO -0.2958
-4.4247 MEZZODí -0.3010
-2.7257 MI -0.2965
-3.1896 MIA -0.2837
-4.5119 MIAGOLII -0.3002
-4.2900 MICCIA -0.2835
-5.4661 MICHELA -0.2851
-4.2900 MICHELE -0.2789
-4.5119 MIDOLLA -0.3010
-3.7179 MIE -0.3009
-3.1761 MIEI -0.2996
-4.5630 MIGLIA -0.3001
-4.2108 MIGLIAIA -0.2960
-4.2357 MIGLIORE -0.2990
-4.3869 MIGLIORI -0.3010
-5.4661 MILANO -0.2851
-4.1873 MILLE -0.3010
-4.1237 MINA -0.2846
-4.4661 MINACCIA -0.2851
-4.7671 MINACCIANDO -0.3008
-4.5119 MINACCIAVA -0.3008
-4.5119 MINACCIOSA -0.3009
-4.6210 MINACCIOSO -0.2977
-4.6210 MINIMA -0.3010
-3.7849 MINUTI -0.2886
-4.3869 MINUTO -0.3001
-3.0283 MIO -0.2998
-4.7671 MIRACOLI -0.2851
-4.4247 MIRACOLO -0.2851
-5.4661 MIRKO -0.2851
-4.5119 MISCHIA -0.2851
-3.8326 MISE -0.2982
-4.5119 MISERICORDIA -0.3008
-4.3200 MISSIONE -0.2835
-4.1237 MISTERIOSA -0.2999
-4.7671 MISTERIOSE -0.3010
-4.1651 MISTERIOSO -0.2850
-4.9890 MISURARVI -0.2998
-4.2900 MITRAGLIA -0.3003
-4.6879 MODALITà -0.3010
-5.4661 MODENA -0.2851
-3.9220 MODO -0.2839
-3.7940 MOKO -0.2965
-5.4661 MOLISE -0.2851
-4.4661 MOLLUSCHI -0.3010
-4.8640 MOLTA -0.3010
-4.4247 MOLTE -0.3010
-4.0859 MOLTI -0.2929
-3.7940 MOLTO -0.2998
-4.2620 MOMENTI -0.2850
-3.3906 MOMENTO -0.2645
-3.9747 MONDO -0.2833
-5.4661 MONICA -0.2851
-4.9890 MONITOR -0.2851
-4.3522 MONOTONI -0.2977
-4.1237 MONTAGNA -0.2817
-4.5630 MONTARE -0.2976
-4.5119 MONTAVA -0.3008
-4.2900 MONTBARS -0.2975
-5.4661 MONZA -0.2851
-3.5853 MORGAN -0.2642
-4.6210 MORIBONDO -0.2851
-4.2900 MORMORANDO -0.2846
-3.4705 MORMORò -0.2877
-4.6879 MORTA -0.2851
-3.4169 MORTE -0.2750
-4.2108 MORTI -0.2917
-3.8640 MORTO -0.2814
-4.4661 MOSCHETTONE -0.2851
-4.7671 MOSCHETTONI -0.3010
-4.2900 MOSSA -0.3010
-4.6210 MOSSE -0.2851
-4.0859 MOSSI -0.2850
-4.4661 MOSSO -0.3010
-4.5630 MOSTRANDO -0.2986
-4.5119 MOSTRARCI -0.2995
-4.3522 MOSTRARSI -0.3010
-4.5119 MOSTRERANNO -0.2851
-4.6879 MOSTRI -0.2977
-4.6879 MOSTRIATE -0.2996
-4.3200 MOTIVI -0.3010
-3.7585 MOTIVO -0.2786
-4.1439 MOTO -0.2946
-5.4661 MOUSE -0.2851
-4.5630 MOVIMENTO -0.2851
-5.4661 MOZILLA -0.2851
-4.4661 MUGGENDO -0.3010
-4.4247 MUGGITO -0.2960
-4.5119 MULATTA -0.2962
-4.4247 MULI -0.2851
-5.4661 MULTIMEDIALI -0.2851
-4.4661 MUNITI -0.3010
-4.3522 MUNIZIONI -0.2851
-4.5119 MUOVE -0.3008
-4.5630 MUOVEREI -0.2996
-4.4661 MUOVERGLI -0.3010
-4.5119 MUOVERSI -0.2996
-4.3200 MUOVESSE -0.3009
-4.4661 MUOVONO -0.3009
-4.1439 MURA -0.2949
-4.6879 MURATA -0.3010
-3.8640 MURATE -0.2814
-4.4661 MUSCOLI -0.3001
-4.3522 MUSICA -0.3010
-5.1651 MUSICALI -0.2851
-4.2900 MUSO -0.2850
-4.3869 MUTA -0.2960
-4.3200 MUTI -0.3010
-5.1651 MUTO -0.2851
-5.4661 NAPOLI -0.2851
-4.4661 NASALE -0.2851
-4.8640 NASCONDERE -0.2951
-4.7671 NASCONDIAMOCI -0.3010
-4.4247 NASCONDIGLI -0.3009
-4.4247 NASCOSTO -0.3007
-4.2357 NASO -0.2837
-4.5119 NATIVO -0.3010
-4.2357 NATURALE -0.2962
-4.4247 NAU -0.2943
-4.2620 NAVAJE -0.2851
-3.2620 NAVE -0.2626
-4.1044 NAVI -0.3010
-4.5119 NAVIGA -0.3006
-4.5630 NAVIGARE -0.2998
-4.3522 NAVIGAVA -0.3008
-3.2108 NE -0.2989
-4.7671 NECESSARIE -0.2996
-3.9346 NECESSARIO -0.2987
-4.5119 NECESSITA -0.3009
-4.4661 NECESSITà -0.3004
-4.1237 NEGLI -0.3009
-4.3869 NEGO -0.3010
-3.2513 NEGRO -0.2795
-4.1651 NEI -0.3008
-3.2513 NEL -0.2996
-4.9890 NELL'ALTRA -0.2851
-4.3869 NELL'ANGUSTO -0.3010
-3.2566 NELLA -0.2990
-3.5367 NELLE -0.3008
-4.4661 NEMICA -0.2976
-3.8326 NEMICI -0.2837
-4.3200 NEMICO -0.3010
-3.8033 NEMMENO -0.2870
-4.2620 NEPPURE -0.3007
-4.5630 NERA -0.3010
-4.3869 NERE -0.2851
-3.0252 NERO -0.2681
-4.1651 NESSUN -0.3008
-4.2108 NESSUNA -0.3008
-3.6210 NESSUNO -0.2836
-4.5119 NICARAGUA -0.2851
-5.4661 NICOLA -0.2851
-5.4661 NICOLE -0.2851
-5.4661 NICOLò -0.2851
-4.3200 NIENT'ALTRO -0.2851
-4.1237 NIENTE -0.3010
-4.5630 NIKU -0.3010
-3.8533 NIPOTE -0.2800
-3.4054 NO -0.2913
-4.7671 NOBILE -0.3010
-4.6879 NOBILTà -0.2851
-5.4661 NOEMI -0.2851
-2.8110 NOI -0.2595
-4.6210 NOIA -0.3000
-3.8533 NOME -0.2738
-2.1482 NON -0.2722
-4.1873 NONDIMENO -0.3009
-4.4661 NONOSTANTE -0.3001
-3.3942 NOSTRA -0.2997
-3.5523 NOSTRE -0.3008
-3.7585 NOSTRI -0.2974
-3.7585 NOSTRO -0.3006
-4.5630 NOTA -0.3001
-3.4247 NOTAIO -0.2732
-4.3200 NOTE -0.3010
-5.4661 NOTEPAD -0.2851
-4.6210 NOTIZIE -0.2962
-3.4491 NOTTE -0.2726
-4.5119 NOTTURNO -0.2851
-5.4661 NOVARA -0.2851
-4.1651 NULLA -0.2953
-3.7671 NUMERO -0.3001
-4.3200 NUMEROSA -0.2798
-4.3869 NUMEROSE -0.3010
-4.2620 NUMEROSI -0.2977
-4.3522 NUMEROSO -0.3010
-4.9890 NUOVA -0.2996
-4.5119 NUOVAMENTE -0.2851
-4.1044 NUOVE -0.2850
-4.5630 NUTRIATE -0.3006
-4.5630 NUTRONO -0.3002
-3.3522 Né -0.2845
-2.9861 O -0.2847
-4.2900 OBBEDIRE -0.3010
-4.5630 OBBEDIRGLI -0.2851
-4.2357 OCCASIONE -0.3010
-3.3692 OCCHI -0.2778
-4.3200 OCCUPARTI -0.2960
-4.6210 OCCUPASSE -0.3010
-4.5119 OCCUPATA -0.2851
-4.6210 OCCUPATEVI -0.3010
-4.8640 OCCUPATI -0.3001
-4.5630 OCCUPATISSIMI -0.2851
-4.0859 OCCUPATO -0.2968
-3.6879 OD -0.2979
-4.2357 ODIASSE -0.2851
-4.0037 ODIO -0.2992
-4.6210 ODORE -0.3010
-4.5630 OFFESO -0.2851
-4.5630 OFFRA -0.3010
-4.5630 OFFRE -0.3007
-4.6210 OFFRIVA -0.3007
-4.5119 OFFRí -0.2951
-4.3200 OGGI -0.2839
-4.2108 OGNI -0.3010
-4.3869 OGNUNO -0.2976
-4.7671 OLONESE -0.2996
-4.3200 OLTRE -0.2994
-4.1439 OLTREPASSATI -0.2960
-4.5630 OMBRELLO -0.3008
-3.3797 ONDE -0.2753
-4.4661 ONDEGGIAVANO -0.2995
-4.6879 ONOREVOLE -0.3010
-5.1651 OPENOFFICE -0.3010
-4.6210 OPERA -0.2949
-4.4661 OPPORTUNO -0.2851
-3.1063 ORA -0.2627
-4.4661 ORAMAI -0.2997
-4.5630 ORDINATO -0.2960
-4.5630 ORDINI -0.2851
-4.3522 ORDINò -0.2951
-4.0037 ORE -0.2918
-4.3200 ORECCHI -0.2850
-4.2357 ORECCHIO -0.2851
-4.6210 ORGANIZZARSI -0.3010
-3.5853 ORMAI -0.2880
-4.5119 ORRIBILI -0.3010
-4.4661 ORRIBILMENTE -0.2977
-4.4661 ORRORE -0.2851
-4.0189 ORSú -0.3009
-4.8640 OSA -0.3010
-4.6210 OSARE -0.3010
-4.6210 OSCURE -0.2851
-4.6210 OSCURI -0.2851
-4.6210 OSERANNO -0.3010
-4.2357 OSERà -0.3010
-4.7671 OSI -0.3010
-4.4247 OSO -0.3010
-4.2108 OSPITALITà -0.2980
-4.5119 OSPITI -0.3001
-4.8640 OSSA -0.2851
-4.6879 OSSERVATO -0.2999
-4.5119 OSSI -0.3010
-4.5119 OSSIA -0.2986
-3.9747 OSTACOLI -0.2800
-4.5630 OSTANTE -0.3006
-4.5119 OSTINATE -0.3010
-4.6879 OSTINATI -0.3010
-4.3869 OSTINAZIONE -0.3010
-3.7027 OTTO -0.2952
-5.4661 OUTLOOK -0.2851
-4.3869 OVE -0.2984
-4.6210 OVUNQUE -0.3010
-4.8640 PACE -0.2851
-5.4661 PADOVA -0.2851
-4.3869 PADRE -0.3010
-4.5119 PADRINI -0.2977
-4.0859 PADRONE -0.2976
-4.0511 PAESE -0.2968
-4.7671 PAESI -0.3006
-4.2620 PAGARE -0.2993
-4.3522 PAGHERANNO -0.2999
-4.4247 PAGHEREMO -0.2982
-4.3522 PAGHERà -0.2951
-4.5119 PAIO -0.2960
-4.6879 PALAZZINA -0.2977
-5.4661 PALERMO -0.2851
-4.8640 PALETUVIERI -0.2851
-4.2357 PALLA -0.2987
-4.2620 PALLE -0.3000
-4.2357 PALLIDI -0.3010
-3.8640 PALLIDO -0.2909
-4.2620 PALUDE -0.2975
-4.2900 PALUDOSA -0.2847
-4.5630 PANI -0.2851
-4.5630 PANNI -0.3008
-5.4661 PAOLA -0.2851
-5.4661 PAOLO -0.2851
-4.3200 PARALLELAMENTE -0.2982
-4.3522 PARARE -0.2995
-4.1439 PARATE -0.2837
-3.6088 PARE -0.2932
-4.3869 PARECCHI -0.3010
-4.6210 PARECCHIE -0.3010
-4.2620 PARENTI -0.2851
-3.3762 PAREVA -0.2831
-4.1044 PAREVANO -0.3010
-3.9747 PARI -0.2841
-4.2620 PARLANDO -0.3006
-4.2357 PARLARE -0.2952
-4.4661 PARLAVA -0.2851
-4.2900 PARLAVANO -0.3004
-4.2620 PARLERAI -0.3003
-4.5119 PARLEREMO -0.3001
-5.4661 PARMA -0.2851
-4.0859 PAROLA -0.2798
-3.7671 PAROLE -0.2808
-3.6088 PARTE -0.2823
-4.2108 PARTENZA -0.2996
-3.9890 PARTI -0.2834
-5.1651 PARTIRE -0.2973
-4.4247 PARTITA -0.3008
-4.5119 PARTITE -0.3010
-4.4247 PARTITO -0.2999
-4.1237 PARVE -0.2962
-4.6879 PASCOLO -0.3006
-4.8640 PASSA -0.3009
-4.0189 PASSARE -0.2833
-4.0682 PASSATO -0.3002
-4.3869 PASSAVA -0.3010
-4.7671 PASSEGGIARE -0.3008
-4.2108 PASSERELLA -0.2975
-3.5023 PASSI -0.2989
-3.9609 PASSO -0.2811
-4.1237 PASSò -0.3009
-4.3522 PASTO -0.3010
-4.6879 PATERAZZO -0.2977
-4.3200 PATRIA -0.2989
-4.5119 PATRIO -0.3010
-3.6466 PAURA -0.2785
-5.4661 PAUSA -0.2851
-4.7671 PAZIENZA -0.3008
-4.2900 PAZZI -0.2851
-4.3200 PAZZO -0.2960
-5.4661 PC -0.2851
-4.6210 PECCATO -0.2962
-3.8640 PEGGIO -0.2831
-4.1651 PEL -0.3007
-4.3522 PELAME -0.3010
-4.5119 PELI -0.2851
-4.2108 PELLE -0.3000
-4.1651 PENDERE -0.3008
-4.4661 PENNONE -0.2960
-4.0347 PENSARE -0.2982
-3.8863 PENSATE -0.2925
-4.2620 PENSATO -0.2955
-4.5630 PENSAVO -0.3006
-4.5119 PENSEREMO -0.3006
-4.4661 PENSIAMO -0.3007
-3.9890 PENSIERI -0.3007
-4.2357 PENSIERO -0.2978
-4.0511 PENSO -0.2962
-4.4661 PENTIRMI -0.3010
-4.6210 PENTIRTI -0.2851
-4.3869 PENZOLARE -0.3008
-2.4847 PER -0.2686
-5.4661 PERCENTUALE -0.3010
-3.6088 PERCHé -0.2936
-4.5630 PERCIò -0.3001
-4.9890 PERCUOTENDO -0.3010
-3.9609 PERDERE -0.2798
-4.2108 PERDERà -0.2925
-4.6879 PERDERò -0.2960
-4.4661 PERDEVA -0.3010
-4.6210 PERDITE -0.2851
-4.2900 PERDONATE -0.3006
-4.3869 PERDONATO -0.3009
-4.3869 PERDUTA -0.3010
-4.4247 PERDUTI -0.2851
-4.1237 PERDUTO -0.2926
-4.2900 PERFINO -0.2992
-3.8326 PERICOLO -0.2797
-4.4661 PERICOLOSA -0.2961
-3.9346 PERICOLOSE -0.2846
-4.0682 PERICOLOSI -0.2960
-4.1651 PERICOLOSO -0.2920
-4.8640 PERMESSO -0.3010
-4.4247 PERMETTERVI -0.2960
-4.5630 PERMETTETE -0.2962
-4.4661 PERSONALE -0.2851
-4.3200 PERSONALI -0.2977
-3.6400 PERSONE -0.2800
-5.4661 PERUGIA -0.2851
-2.8852 PERò -0.2657
-4.4661 PERú -0.3000
-5.4661 PESCARA -0.2851
-4.0189 PESCE -0.3009
-4.2357 PESCI -0.2816
-4.5119 PESO -0.2960
-4.6210 PETTO -0.2998
-4.3522 PEZZI -0.2798
-4.3522 PEZZO -0.2960
-5.4661 PIACENZA -0.2851
-4.6879 PIACERE -0.2960
-4.3869 PIACEVOLE -0.3010
-4.4247 PIANTAGIONE -0.2960
-4.1439 PIANTE -0.2850
-4.4247 PIANURA -0.3002
-4.2108 PIASTRA -0.2996
-4.2108 PIASTRE -0.2846
-4.6210 PIAZZA -0.3010
-4.6879 PICCHIATO -0.3007
-4.6879 PICCO -0.2851
-4.3522 PICCOLA -0.3006
-4.6210 PICCOLE -0.3010
-4.6210 PICCOLI -0.3004
-3.9609 PICCOLO -0.2995
-5.4661 PICTURE -0.2851
-4.4247 PIEDE -0.3007
-3.6952 PIEDI -0.2839
-5.4661 PIEMONTE -0.2851
-4.2108 PIENA -0.3010
-4.6210 PIENAMENTE -0.3009
-4.5119 PIENE -0.2851
-4.1439 PIENO -0.2850
-5.4661 PIERANGELA -0.2851
-4.4661 PIERRE -0.2995
-3.9609 PIETRA -0.2849
-3.7671 PIETRO -0.2780
-4.6879 PILOTA -0.3009
-4.9890 PIOMBA -0.2998
-4.5630 PIOMBARE -0.3009
-4.5630 PIOMBATO -0.3009
-4.6879 PIOMBAVO -0.3008
-4.4247 PIOMBEREMO -0.3004
-4.6879 PIOMBO -0.2851
-4.4247 PISTOLA -0.2851
-4.3522 PISTOLE -0.2851
-4.5630 PITTORESCO -0.3010
-4.3869 PIUME -0.3010
-2.6688 PIú -0.2675
-5.4661 PLAY -0.2851
-3.9098 PLAZA -0.3010
-3.7418 PO' -0.2949
-3.7759 POCHI -0.2848
-3.6088 POCO -0.2806
-4.3200 PODEROSO -0.3009
-3.0159 POI -0.2930
-3.9747 POICHé -0.2965
-4.5119 POITOU -0.2997
-4.1873 POLVERE -0.2973
-4.4247 POMERIDIANE -0.2952
-4.5630 POMERIGGIO -0.2951
-4.6879 PONETE -0.2995
-3.6400 PONTE -0.2894
-4.5119 PONTI -0.3009
-4.4247 POPOLAZIONE -0.2960
-3.7849 POPPA -0.2800
-4.4661 PORGENDOGLI -0.2996
-4.4661 PORGENDOLA -0.3005
-4.6210 PORGEVA -0.2851
-4.5630 PORGLI -0.2995
-4.6879 PORRAI -0.2995
-4.3200 PORSE -0.2916
-3.8129 PORTA -0.2782
-4.0682 PORTARE -0.2923
-4.7671 PORTATA -0.2982
-5.1651 PORTATI -0.3010
-4.3522 PORTATO -0.2994
-4.1873 PORTAVA -0.2825
-4.5630 PORTAVOCE -0.3001
-4.6879 PORTE -0.2977
-4.1439 PORTI -0.3009
-4.1651 PORTO -0.2850
-4.5119 POSA -0.3010
-4.0511 POSSA -0.3009
-4.0859 POSSANO -0.3010
-4.5119 POSSEDERE -0.2986
-4.3869 POSSEDETE -0.2996
-4.5119 POSSESSIONI -0.2977
-3.7849 POSSIAMO -0.2997
-3.9098 POSSIBILE -0.2841
-3.7849 POSSO -0.3009
-4.1044 POSSONO -0.3009
-4.3522 POSTO -0.3010
-4.5119 POTENDO -0.3009
-4.2357 POTER -0.3010
-4.5119 POTERLI -0.3010
-4.6210 POTERLO -0.3010
-4.3522 POTERNE -0.3010
-4.4661 POTERONO -0.3010
-4.6879 POTESSE -0.3010
-4.3869 POTESSERO -0.3010
-4.6879 POTESSIMO -0.3010
-4.0682 POTEVA -0.3010
-4.5630 POTEVO -0.3010
-4.3200 POTREBBE -0.3010
-4.2108 POTREI -0.3005
-3.7337 POTREMO -0.3006
-4.0037 POTRà -0.3008
-3.8979 POTUTO -0.3010
-4.6879 POTé -0.3010
-4.2108 POVERO -0.3009
-5.4661 POWERPOINT -0.2851
-4.3522 POZZE -0.2962
-4.6210 PRANZARE -0.2998
-4.4661 PRATICO -0.2960
-5.4661 PRATO -0.2851
-4.5119 PRECAUZIONE -0.2960
-4.6210 PRECAUZIONI -0.3010
-5.1651 PRECEDENTE -0.2851
-4.6879 PRECEDUTI -0.3009
-4.7671 PRECIPITARSI -0.3009
-4.2900 PRECIPITATI -0.2847
-4.4661 PRECIPITATO -0.2982
-4.2900 PRECIPITOSAMENTE -0.3009
-4.4661 PRECIPITò -0.3009
-4.4661 PRECIPIZIO -0.2851
-4.3869 PREDA -0.3004
-4.7671 PREDARE -0.2962
-4.5119 PREDATA -0.2851
-4.2900 PREDATORE -0.2935
-4.8640 PREDONI -0.2851
-4.2357 PREFERISCO -0.2960
-4.5119 PREFERITO -0.3010
-4.2620 PREGO -0.2960
-4.6879 PREME -0.2979
-4.5630 PREMIO -0.2962
-4.5119 PRENDANO -0.3008
-4.5630 PRENDENDOLO -0.3006
-4.1873 PRENDER -0.3009
-3.5316 PRENDERE -0.2929
-4.4247 PRENDERETE -0.3006
-4.8640 PRENDERSELA -0.2998
-4.5119 PRENDERTI -0.2998
-4.6210 PRENDERà -0.2998
-4.3522 PRENDERò -0.2976
-4.5630 PRENDEVO -0.3001
-4.4661 PRENDI -0.3008
-4.4661 PRENDIAMO -0.3010
-4.4247 PRENDO -0.3004
-4.2620 PREOCCUPA -0.2977
-4.3869 PREOCCUPATEVI -0.2960
-4.5119 PREOCCUPATO -0.3010
-4.3200 PREOCCUPAVANO -0.2851
-4.0511 PREPARA -0.2982
-4.5630 PREPARANO -0.3004
-4.6879 PREPARARCI -0.3006
-3.9890 PREPARARE -0.2961
-4.5630 PREPARATA -0.3008
-4.8640 PREPARAVANO -0.2982
-4.6210 PREPARIAMO -0.2993
-4.3869 PRESA -0.2996
-4.3869 PRESE -0.2985
-4.4661 PRESENTANDO -0.3001
-4.5119 PRESENTAVANO -0.3004
-4.5119 PRESENTERANNO -0.2976
-4.3869 PRESENTIMENTO -0.3009
-4.1044 PRESENZA -0.2842
-4.3869 PRESIDIO -0.3010
-4.6210 PRESO -0.2951
-3.6532 PRESSO -0.2881
-4.6210 PRESTANO -0.2996
-3.6879 PRESTO -0.2991
-4.1439 PREVEDENDO -0.2993
-4.3869 PREVEDERE -0.3006
-4.5630 PREZIOSO -0.2995
-3.9890 PRIGIONIERA -0.2835
-3.9609 PRIGIONIERI -0.2847
-3.4491 PRIGIONIERO -0.2891
-3.1501 PRIMA -0.2646
-4.0682 PRIME -0.3009
-4.2108 PRIMI -0.2928
-3.8750 PRIMO -0.2975
-4.5119 PRINCIPIO -0.2960
-4.3869 PRIVAZIONI -0.3008
-4.7671 PROBABILE -0.3005
-4.2357 PROBABILMENTE -0.2958
-4.2900 PROCEDENDO -0.2994
-4.2108 PROCESSIONE -0.2958
-4.5119 PROCURERANNO -0.3009
-4.7671 PRODEZZA -0.3010
-4.4661 PRODIGIOSI -0.3010
-4.5630 PRODUCE -0.3006
-4.3869 PRODUCONO -0.3003
-4.6210 PROFEZIA -0.3000
-4.2108 PROFONDI -0.3010
-4.0682 PROFONDO -0.3009
-4.6210 PROFUMO -0.3010
-4.1044 PROGETTO -0.2818
-5.4661 PROGRAMMA -0.2960
-4.2620 PROLUNGARSI -0.2996
-4.6879 PROMESSE -0.2979
-4.5630 PROMESSO -0.2977
-4.1439 PROMETTO -0.2796
-4.1044 PROMONTORIO -0.2985
-4.0859 PRONTAMENTE -0.2960
-4.4661 PRONTE -0.2977
-4.3522 PRONTI -0.2979
-3.9098 PRONTO -0.2917
-4.6879 PRONUNCIARE -0.3010
-4.6879 PRONUNCIò -0.2996
-4.4661 PRONUNZIATO -0.3008
-4.3869 PROPAGATA -0.3010
-4.2357 PROPIZIA -0.2996
-4.5630 PROPORZIONI -0.3010
-4.6210 PROPRIA -0.3010
-4.6879 PROPRIO -0.3010
-3.7418 PRORA -0.2812
-4.6879 PROSCIUTTO -0.2960
-4.6879 PROSEGUI -0.3001
-4.2108 PROSEGUIRE -0.2960
-4.6210 PROTEGGE -0.2993
-4.9890 PROTEGGERà -0.3007
-4.1237 PROVA -0.2972
-4.4661 PROVASSI -0.2951
-4.2900 PROVATO -0.2841
-4.3200 PROVENIENTE -0.3008
-4.3522 PROVVEDERE -0.3007
-4.1439 PROVVISTE -0.2842
-4.1044 PROVò -0.2986
-4.4661 PRUDENTE -0.2851
-4.5119 PRUDENTEMENTE -0.2976
-4.4661 PRUDENTI -0.2851
-4.1651 PRUDENZA -0.2976
-5.4661 PUGLIA -0.2851
-4.6879 PUGNALI -0.2996
-4.1439 PUGNO -0.2798
-4.5119 PUNIRE -0.3010
-4.5119 PUNIVANO -0.3010
-4.4247 PUNTA -0.3000
-4.5119 PUNTANDO -0.2993
-4.4661 PUNTANDOLA -0.3006
-4.4661 PUNTATO -0.3009
-4.2620 PUNTI -0.3010
-4.3869 PUNTO -0.3010
-4.2620 PUOI -0.3009
-4.6210 PUR -0.3010
-3.5071 PURE -0.2799
-4.5119 PUZZOLENTE -0.3010
-3.4367 PUò -0.2996
-3.7671 QUADRO -0.2759
-4.7671 QUADRUMANI -0.2851
-4.3200 QUAL -0.2995
-3.0299 QUALCHE -0.2990
-3.8033 QUALCUNO -0.2983
-3.7179 QUALE -0.2972
-4.5119 QUALSIASI -0.3010
-4.4247 QUALUNQUE -0.3008
-4.5630 QUAND'EBBE -0.3010
-3.1672 QUANDO -0.2799
-4.2900 QUANTA -0.3007
-4.3200 QUANTE -0.2979
-4.4247 QUANTI -0.3008
-3.9747 QUANTO -0.3005
-3.7849 QUANTUNQUE -0.2987
-4.9890 QUARANTA -0.3010
-4.7671 QUARTIER -0.3010
-4.5630 QUARTIERE -0.3007
-3.9890 QUARTO -0.2960
-3.7501 QUASI -0.2974
-3.8979 QUATTRO -0.3004
-4.0037 QUEGLI -0.3007
-3.4092 QUEI -0.3000
-3.0236 QUEL -0.2950
-4.4247 QUELL'AFFERMAZIONE -0.3010
-4.5119 QUELL'EPOCA -0.3004
-4.4247 QUELL'IMPORTUNO -0.2977
-4.3200 QUELL'INFAME -0.2842
-4.0859 QUELL'ISTANTE -0.2936
-4.5630 QUELL'ODIO -0.3001
-4.3869 QUELL'ORGANISMO -0.3010
-4.4661 QUELL'ORGIA -0.2960
-4.6210 QUELL'OSTACOLO -0.2997
-3.6400 QUELL'UOMO -0.2825
-3.1966 QUELLA -0.2990
-3.4287 QUELLE -0.2999
-3.9098 QUELLI -0.2936
-3.6148 QUELLO -0.2907
-3.9098 QUEST'ORA -0.3001
-4.6210 QUEST'ORRIBILE -0.3010
-4.1439 QUEST'UOMO -0.2947
-3.1828 QUESTA -0.2978
-3.5576 QUESTE -0.2996
-3.3657 QUESTI -0.2956
-3.3555 QUESTO -0.2812
-3.4661 QUI -0.2778
-3.5576 QUINDI -0.2974
-4.5630 QUINDICI -0.3010
-4.5119 QUINTALE -0.2851
-4.4247 RABBIA -0.2977
-4.3200 RABBONITA -0.3008
-4.4661 RACCOGLIENDO -0.2976
-4.5119 RACCOGLIERCI -0.2851
-4.5630 RACCOGLIERE -0.3002
-4.2108 RACCOLTA -0.2951
-4.5630 RACCOLTI -0.2851
-5.1651 RADDOPPIò -0.2993
-4.1237 RADO -0.2847
-4.5119 RADURA -0.2996
-4.5119 RAGGI -0.3010
-4.0511 RAGGIUNGERE -0.2975
-4.9890 RAGGIUNGERLI -0.3008
-4.6210 RAGGIUNGERMI -0.3010
-4.5119 RAGGIUNGERò -0.2851
-4.3200 RAJE -0.2962
-4.3869 RAMI -0.2850
-4.6879 RAMMENTERETE -0.3009
-3.7027 RAMO -0.2795
-4.5630 RANDA -0.2851
-4.9890 RANDELLO -0.2851
-4.4247 RANOCCHI -0.2962
-4.2357 RAPIDA -0.3004
-3.4793 RAPIDAMENTE -0.2786
-4.3869 RAPIDITà -0.2851
-4.2900 RAPIDO -0.3010
-4.4661 RAPIRE -0.2951
-4.3200 RARA -0.2981
-4.6879 RASSEGNARSI -0.3004
-4.7671 RASSEGNAZIONE -0.2976
-4.5630 RASSERENASSE -0.3008
-4.8640 RASSICURATEVI -0.3005
-5.1651 RASSICURATO -0.3010
-4.3869 RAUCA -0.3010
-4.3522 RAUCHI -0.3010
-5.4661 RAVENNA -0.2851
-4.5630 RECATO -0.2962
-4.4247 RECENTE -0.3010
-4.6210 RECHI -0.3003
-4.6210 RECISE -0.2998
-4.6210 REFRATTARI -0.3010
-5.1651 REGGIO -0.3010
-4.4661 REGIONE -0.2997
-4.0189 REGNAVA -0.3006
-4.3869 REGOLARE -0.3010
-4.4661 REMATORI -0.2851
-4.4247 REMI -0.3010
-4.3522 REMO -0.3010
-4.6210 RENDERE -0.2986
-4.3869 RENDERGLI -0.3010
-4.5630 RENDERLO -0.3001
-4.3869 RENI -0.2851
-4.2900 REPENTINAMENTE -0.3010
-4.1651 RESA -0.2850
-4.0859 RESISTENZA -0.2850
-4.5119 RESISTENZE -0.3008
-3.9476 RESISTERE -0.2978
-4.1873 RESISTEVA -0.2998
-4.6210 RESPINTI -0.3008
-4.3869 RESPIRASSE -0.2851
-4.0347 RESPIRO -0.2834
-4.5119 RESTA -0.2976
-4.6879 RESTITUIRE -0.2995
-4.8640 RESTO -0.2982
-4.1237 RETTILE -0.2993
-4.5119 RETTILI -0.2977
-4.3522 RIACQUISTARE -0.2976
-4.4247 RIACQUISTATA -0.2976
-4.6210 RIALZATO -0.3008
-4.3200 RIALZò -0.3009
-4.5119 RICADERE -0.2995
-4.3522 RICARICATE -0.3010
-5.4661 RICCARDO -0.2851
-4.3200 RICCHEZZE -0.2851
-5.4661 RICERCA -0.2851
-4.6879 RICEVERLI -0.2998
-4.3200 RICEVERà -0.3009
-4.5630 RICONOSCIUTA -0.2995
-4.4661 RICORDARMI -0.2951
-4.6210 RICORDEREMO -0.3008
-4.4661 RICORDI -0.2962
-4.5119 RICORDO -0.3008
-4.4661 RICORRERE -0.2982
-4.5630 RICOVERO -0.2851
-3.8640 RIDENDO -0.2844
-4.4247 RIDERE -0.2995
-4.5630 RIDICOLO -0.2851
-4.5119 RIDIVENTATO -0.3010
-4.5630 RIEMPí -0.2995
-4.2357 RIESCONO -0.2982
-5.4661 RIFAI -0.2851
-4.8640 RIFLESSIONE -0.2851
-4.2357 RIFUGIO -0.3010
-4.3522 RIGOROSAMENTE -0.3006
-4.6210 RIGUARDA -0.2999
-4.4247 RIMANEVANO -0.2956
-4.5630 RIMARRANNO -0.3007
-4.0511 RIMARRà -0.3010
-4.1873 RIMASE -0.2984
-3.9609 RIMASTO -0.3009
-4.1651 RIMBOMBARE -0.2941
-4.8640 RIMBOMBARONO -0.3010
-4.4661 RIMBOMBATO -0.3007
-4.6210 RIMBOMBO -0.3006
-4.7671 RIMESSI -0.3010
-3.9346 RIMESSO -0.2987
-4.6210 RIMETTERCI -0.2995
-5.4661 RIMINI -0.2851
-4.5630 RIMISE -0.2995
-4.4247 RIMISERO -0.2995
-4.6210 RIMORCHIO -0.2986
-4.5630 RIMPROVERERà -0.2960
-4.4247 RIMUOVENDO -0.3009
-4.5119 RINCHIUSE -0.3010
-4.2357 RINCRESCE -0.3010
-4.5119 RINCRESCEREBBE -0.2995
-4.5630 RINCRESCIUTO -0.2962
-4.6210 RINGRAZIO -0.3009
-4.4247 RINTRONARE -0.3007
-4.5630 RINTRONò -0.3008
-4.6210 RIORGANIZZARE -0.2996
-4.6879 RIPARATI -0.3009
-4.5630 RIPARI -0.3009
-4.4247 RIPARTIRE -0.2999
-4.3200 RIPERCOSSE -0.3010
-4.3869 RIPERCUOTE -0.3004
-4.1651 RIPETé -0.2943
-4.6210 RIPORTATA -0.2976
-4.4661 RIPOSARTI -0.2851
-4.5119 RIPOSAVA -0.2851
-4.5630 RIPOSO -0.3006
-4.4661 RIPRENDERE -0.2951
-4.6879 RIPRENDETE -0.2976
-4.3200 RIPRESE -0.2789
-4.1651 RIPRESERO -0.2948
-4.3522 RIPRESO -0.2951
-4.5630 RISA -0.2851
-4.0682 RISCATTO -0.2848
-4.3869 RISERVA -0.3010
-4.4247 RISERVE -0.3000
-4.6210 RISOLLEVATO -0.3009
-4.3869 RISOLUTA -0.2999
-4.5119 RISOLUTAMENTE -0.3001
-4.2620 RISOLUZIONE -0.2838
-4.5630 RISPARMIAMO -0.2993
-4.6879 RISPARMIASTE -0.2976
-4.2620 RISPARMIATO -0.3010
-4.5119 RISPARMIEREMO -0.2996
-4.3522 RISPARMIO -0.2960
-4.6879 RISPETTAVANO -0.3010
-4.5630 RISPETTEREMO -0.2976
-3.7257 RISPONDERE -0.2903
-4.4661 RISPONDERETE -0.2982
-4.6210 RISPONDERà -0.2996
-4.8640 RISPONDEVA -0.2951
-4.5119 RISPONDEVAMO -0.2982
-4.2357 RISPONDO -0.2993
-2.7867 RISPOSE -0.2667
-4.1873 RISPOSERO -0.2983
-4.3522 RISPOSTA -0.3010
-4.5119 RISPOSTO -0.2986
-4.3869 RISUONAVA -0.3008
-4.2900 RITENGO -0.3010
-4.6210 RITENTATO -0.3010
-4.8640 RITIRATA -0.3007
-4.5119 RITIRATEVI -0.3009
-4.5119 RITORNA -0.3009
-4.4247 RITORNARE -0.2847
-4.6210 RITORNATO -0.3010
-3.9609 RITORNO -0.2811
-4.4661 RITROVEREMO -0.2999
-4.6210 RITTO -0.2982
-4.5119 RIUSCIREMO -0.2976
-4.6210 RIUSCIRà -0.3010
-4.5630 RIUSCITO -0.2982
-4.5630 RIUSCIVA -0.2982
-4.0347 RIVE -0.3000
-4.3522 RIVEDERLA -0.3010
-4.3869 RIVEDERTI -0.3005
-4.1237 RIVEDERVI -0.3008
-4.6879 RIVEDRANNO -0.2951
-4.0682 RIVOLGENDOSI -0.3000
-4.4247 RIVOLGERSI -0.3009
-4.6210 RIVOLTA -0.3001
-4.4247 RIVOLTATO -0.3009
-4.5119 RIZZAVA -0.3009
-5.4661 ROBERTA -0.2851
-5.4661 ROBERTO -0.2851
-4.5630 ROBUSTE -0.2851
-4.9890 ROBUSTO -0.3009
-4.2620 ROCCANERA -0.2979
-4.5119 ROCCIA -0.2851
-5.4661 ROMA -0.2851
-5.4661 ROMAGNA -0.2851
-4.5630 ROMBARE -0.3010
-4.2620 ROMPENDO -0.2950
-4.4661 RONDA -0.2977
-4.4247 ROSPI -0.2962
-4.1873 ROSSI -0.2839
-3.6532 ROSSO -0.2849
-4.2900 ROSSORE -0.2840
-4.5119 ROTOLANDO -0.2986
-4.3200 ROTOLARE -0.3010
-4.5630 ROTONDE -0.2851
-3.9476 ROTTA -0.2847
-4.5630 ROTTI -0.2851
-4.3869 ROTTO -0.3009
-4.5119 ROVESCIATI -0.3007
-5.1651 RUBRICA -0.2851
-4.5119 RUGGITI -0.3002
-4.1873 RUGGITO -0.2996
-4.0347 RUPE -0.2989
-4.4247 RUSSANO -0.3010
-4.2108 RUVIDAMENTE -0.3004
-4.3200 S -0.2851
-4.4661 S'ACCAVALLAVANO -0.3010
-4.4247 S'AFFRETTò -0.2982
-5.1651 S'AGGRAPPò -0.3004
-4.3522 S'ALLARGAVANO -0.3009
-4.4661 S'ALLONTANò -0.3010
-4.3200 S'ALZò -0.2978
-4.4661 S'ARRESTò -0.3010
-4.9890 S'AVANZAVANO -0.3010
-4.4247 S'AVANZINO -0.2977
-3.9346 S'ERA -0.3006
-4.6210 S'IMMERGESSE -0.2995
-4.5119 S'IMPEGNò -0.2999
-4.4661 S'IMPREGNAVA -0.3009
-4.3522 S'INCARICARONO -0.3000
-4.6210 S'INCHINò -0.3008
-4.5119 S'INCLINAVA -0.2982
-4.8640 S'INCROCIA -0.2951
-4.4661 S'INGANNA -0.3010
-4.0037 SA -0.2958
-4.5119 SABBIA -0.3010
-4.1237 SACCHEGGIARE -0.2996
-4.0511 SACCO -0.2960
-3.8863 SAI -0.2947
-4.3522 SALAMI -0.3008
-5.4661 SALERNO -0.2851
-4.4247 SALGONO -0.3010
-4.2620 SALIRE -0.3010
-4.4661 SALIRONO -0.2995
-3.8129 SALITO -0.2992
-4.5630 SALIVA -0.3010
-4.6210 SALIVANO -0.2998
-4.1651 SALMA -0.2998
-4.2357 SALOTTO -0.2996
-5.1651 SALTARE -0.3010
-4.3200 SALTI -0.2789
-4.7671 SALUTARE -0.2951
-4.4661 SALUTARLA -0.2851
-4.2357 SALUTE -0.2999
-4.2357 SALVACONDOTTO -0.2836
-4.5119 SALVATA -0.2976
-5.4661 SALVATORE -0.2851
-4.5119 SALVERò -0.2976
-4.3522 SALVO -0.2964
-4.2900 SALí -0.3007
-3.7940 SANGUE -0.2820
-4.8640 SANGUINARI -0.3010
-4.4247 SANGUINARIO -0.3010
-4.4247 SANGUINOSA -0.2851
-4.5119 SANGUINOSISSIMA -0.3010
-4.9890 SANGUINOSO -0.3010
-4.4661 SANNO -0.2962
-4.3522 SAPENDO -0.2958
-4.5630 SAPENDOVI -0.2995
-3.8533 SAPERE -0.2786
-3.8640 SAPETE -0.2836
-4.4661 SAPORE -0.3010
-4.4661 SAPORITAMENTE -0.2999
-4.4661 SAPPI -0.3009
-4.3522 SAPPIA -0.3009
-4.5630 SAPRAI -0.3004
-4.6210 SAPREI -0.3003
-4.7671 SAPRà -0.2960
-5.4661 SARA -0.2851
-4.5119 SARAI -0.2960
-3.7337 SARANNO -0.2950
-5.4661 SARDEGNA -0.2851
-3.7585 SAREBBE -0.3003
-4.6210 SAREBBERO -0.3010
-5.1651 SAREI -0.3010
-4.4247 SAREMMO -0.3010
-3.6808 SAREMO -0.2993
-3.3358 SARà -0.2933
-3.7102 SARò -0.2971
-5.4661 SASSARI -0.2851
-4.0859 SASSI -0.2834
-4.4661 SATURA -0.3010
-3.7337 SAVANA -0.2845
-4.8640 SBARAZZANDOSI -0.2999
-4.6210 SBARAZZARSI -0.3010
-4.7671 SBARAZZATISI -0.3002
-4.8640 SBARCARE -0.3010
-4.5630 SBARCATO -0.3010
-4.4661 SBARCO -0.3009
-4.5630 SBIRCIò -0.2960
-4.3200 SBUCAVANO -0.3007
-4.5119 SBUDELLARE -0.2986
-4.8640 SCAGLIARSI -0.2851
-4.6210 SCAGLIò -0.3009
-4.1873 SCALA -0.2979
-4.3869 SCALE -0.2851
-4.1873 SCALETTA -0.2800
-4.8640 SCAMBIARE -0.3004
-4.5630 SCAPPERò -0.3009
-4.1044 SCARICA -0.2981
-4.6879 SCARICAVA -0.3007
-4.4247 SCARICHE -0.3010
-5.4661 SCEHRMO -0.2851
-4.3200 SCENA -0.3008
-4.4661 SCENDENDO -0.2976
-4.5119 SCENDERE -0.3010
-4.2900 SCENDEVA -0.3008
-4.5119 SCENE -0.2985
-4.5630 SCESA -0.2999
-4.0859 SCESE -0.2977
-4.4247 SCHEGGIONE -0.3007
-5.4661 SCHERMO -0.2851
-4.4661 SCHIACCIARE -0.2851
-4.4661 SCHIACCIATI -0.3009
-4.5119 SCHIACCIATO -0.2851
-4.3522 SCHIERANDOSI -0.3009
-4.3522 SCHIERATO -0.3009
-4.4661 SCIA -0.3010
-4.0859 SCIABOLA -0.2836
-4.1044 SCIABOLE -0.2961
-3.4054 SCIALUPPA -0.2698
-3.8533 SCIALUPPE -0.2839
-4.1237 SCIMMIE -0.2969
-4.4247 SCINTILLANTE -0.3009
-4.5119 SCINTILLAVA -0.3008
-4.5119 SCIOLTI -0.3008
-4.4247 SCIVOLAVA -0.3009
-4.0859 SCOGLIO -0.2978
-4.5119 SCOLI -0.2960
-4.3522 SCOLPITO -0.2995
-4.2620 SCOMBUSSOLATO -0.2951
-4.6210 SCOMPAIANO -0.2977
-4.9890 SCOMPARIRE -0.2985
-4.6879 SCOMPARSI -0.3009
-4.7671 SCOMPARSO -0.3008
-4.6879 SCOMPARVE -0.3010
-4.2620 SCOPERTA -0.2996
-4.8640 SCOPERTE -0.2995
-4.0859 SCOPERTO -0.2789
-4.5630 SCOPPI -0.3007
-4.1237 SCOPPIARE -0.2961
-4.6210 SCOPRENDOSI -0.2951
-4.6210 SCORDATE -0.2962
-4.2900 SCORGO -0.3010
-4.1873 SCORRIDORE -0.2999
-4.6879 SCORRIDORI -0.2999
-4.5630 SCORSE -0.3001
-4.0347 SCORTA -0.2839
-4.7671 SCORTATA -0.3009
-4.6879 SCORTICARE -0.2951
-4.1873 SCOSSE -0.3010
-4.1651 SCOVARCI -0.2851
-4.4661 SCOVARLO -0.3007
-4.8640 SCRICCHIOLIO -0.2962
-4.6210 SCRITTA -0.2851
-5.4661 SCRIVI -0.2996
-4.2900 SCUOTENDO -0.2951
-4.5119 SCUOTEVA -0.2995
-4.6879 SCURE -0.3010
-4.4661 SCURI -0.2851
-4.6210 SCUSATE -0.3001
-4.5119 SDRAIATO -0.3005
-2.5951 SE -0.2822
-4.5630 SEBBENE -0.3009
-4.8640 SECCHI -0.2851
-4.0859 SECONDA -0.2849
-4.4661 SECONDI -0.2851
-3.7849 SECONDO -0.2965
-4.8640 SEDERE -0.3010
-4.3522 SEDETTERO -0.3010
-4.3869 SEGNALATA -0.2996
-4.3869 SEGUE -0.2996
-4.6210 SEGUENTE -0.3010
-4.6210 SEGUIAMO -0.2993
-4.5630 SEGUIMI -0.2995
-4.5630 SEGUIRLO -0.2851
-4.5119 SEGUITA -0.2851
-4.6879 SEGUITE -0.3007
-3.6737 SEGUITO -0.2839
-4.4661 SEGUIVA -0.3010
-4.3200 SEGUIVANO -0.3010
-4.3869 SEGUO -0.3010
-3.6466 SEI -0.2975
-4.3522 SEICENTO -0.3005
-5.1651 SELEZIONA -0.3008
-5.4661 SELEZIONE -0.2851
-4.5630 SELVA -0.3006
-4.2357 SELVAGGI -0.2999
-3.8640 SELVAGGINA -0.2841
-4.1237 SELVE -0.2970
-4.0347 SEMBRA -0.2950
-4.6210 SEMBRAVA -0.2962
-4.3522 SEMI -0.3010
-4.5630 SEMISPENTA -0.2851
-4.3200 SEMPLICEMENTE -0.2960
-3.2132 SEMPRE -0.2812
-4.2900 SENTENDO -0.3010
-4.5630 SENTENDOLA -0.3010
-4.6879 SENTENDOSI -0.3010
-4.5630 SENTI -0.3010
-4.3522 SENTIAMO -0.3009
-4.3200 SENTIERO -0.3010
-4.2900 SENTINELLA -0.2982
-4.1044 SENTITO -0.3009
-4.3869 SENTIVANO -0.3007
-3.9747 SENTO -0.2996
-3.1919 SENZA -0.2899
-4.7671 SEPARAVA -0.3008
-4.9890 SEPOLTI -0.2993
-4.6879 SEPOLTURA -0.2851
-4.4661 SEQUESTRO -0.3010
-3.8129 SERA -0.2930
-4.3522 SERALE -0.2851
-5.4661 SERENA -0.2851
-4.7671 SERENITà -0.2851
-4.6210 SERENO -0.2979
-4.4661 SERIE -0.2960
-5.1651 SERIO -0.3010
-4.4247 SERPENTE -0.2851
-4.1237 SERPENTI -0.2771
-4.2357 SERVI -0.2992
-4.3522 SERVIRE -0.2851
-4.6879 SERVITO -0.2960
-4.6210 SERVIZIO -0.3005
-4.4661 SETA -0.2851
-4.3869 SETE -0.2962
-4.0347 SETTE -0.3009
-4.6210 SETTECENTO -0.3010
-4.4661 SETTENTRIONALI -0.3010
-4.0037 SETTIMANA -0.2816
-5.4661 SETTINGS -0.3010
-4.5630 SEVERE -0.2962
-4.6879 SFIDANO -0.2976
-4.6210 SFIDARE -0.2976
-4.5119 SFIORANDO -0.3010
-4.2900 SFIORò -0.2995
-4.3869 SFODERATA -0.2976
-4.5119 SFONDATO -0.2996
-4.4661 SFORZI -0.3010
-4.5630 SFORZO -0.3010
-4.1651 SFUGGE -0.2798
-4.5119 SFUGGI -0.3005
-3.9476 SFUGGIRE -0.2958
-4.5630 SFUGGIRà -0.3001
-4.4661 SFUGGITA -0.2960
-4.2900 SFUGGONO -0.3007
-4.5119 SGOMBERO -0.3002
-4.6210 SGUAINANDO -0.2951
-3.7501 SGUARDI -0.2844
-3.7940 SGUARDO -0.2838
-2.2408 SI -0.2939
-3.2674 SIA -0.2914
-3.3555 SIAMO -0.2900
-3.6028 SIANO -0.3005
-3.9098 SIATE -0.3001
-4.5630 SIBILARE -0.3010
-5.4661 SICILIA -0.2851
-4.6210 SICURA -0.2851
-5.4661 SICUREZZA -0.2851
-3.9890 SICURO -0.2994
-3.5969 SIETE -0.2976
-4.5630 SIGARETTA -0.3008
-4.5630 SIGNIFICA -0.2962
-3.6599 SIGNOR -0.2957
-3.5367 SIGNORA -0.2805
-3.1197 SIGNORE -0.2640
-4.5630 SIGNORI -0.3006
-3.5796 SILENZIO -0.2729
-4.1439 SILENZIOSA -0.2846
-4.1873 SILENZIOSO -0.2809
-4.6879 SILLABA -0.2977
-5.4661 SILVIA -0.2851
-4.1873 SIMILE -0.2850
-4.2620 SIMILI -0.2850
-5.4661 SIMONA -0.2851
-5.4661 SIMONE -0.2851
-4.0511 SINGHIOZZI -0.2850
-4.5630 SINGHIOZZO -0.2851
-4.5630 SINTOMI -0.3002
-5.4661 SIRACUSA -0.2851
-5.1651 SISTEMA -0.2851
-4.2357 SLANCIARSI -0.3009
-4.4247 SLANCIATI -0.3009
-4.5630 SLANCIATO -0.3010
-4.5630 SLEGAVA -0.2951
-4.3200 SMARRITO -0.3005
-4.6879 SMORFIE -0.2851
-4.5630 SMORTE -0.3010
-4.5119 SMUOVERE -0.2951
-4.5630 SNUDANDO -0.2998
-3.4408 SO -0.2918
-4.6210 SOCCORSO -0.3008
-4.4661 SOFFERTO -0.2979
-4.4661 SOFFIAVA -0.3004
-4.3522 SOFFRO -0.3008
-5.4661 SOFIA -0.2851
-4.4661 SOGNO -0.2851
-4.6879 SOLA -0.3010
-3.5969 SOLAMENTE -0.2948
-3.5630 SOLDATI -0.2734
-3.9609 SOLDATO -0.2935
-3.7759 SOLE -0.2839
-4.4247 SOLENNE -0.2851
-4.0189 SOLI -0.3007
-4.5119 SOLIDO -0.2851
-4.2357 SOLITO -0.2851
-3.5853 SOLO -0.2954
-4.4661 SOMMESSAMENTE -0.2999
-2.7706 SONO -0.2590
-4.4247 SONORAMENTE -0.2851
-4.4661 SONORO -0.2997
-4.3522 SOPPORTARE -0.3009
-4.4661 SOPRA -0.2951
-4.5119 SOPRATTUTTO -0.3009
-4.4661 SORDAMENTE -0.2851
-4.3869 SORDI -0.3000
-4.8640 SORDO -0.3010
-4.6879 SORGERà -0.3001
-3.8326 SORPRESA -0.2851
-4.6210 SORRIDENDO -0.2851
-4.3200 SORRIDERE -0.2850
-3.7849 SORRISO -0.2798
-4.4661 SORTA -0.3008
-4.1237 SORTE -0.2850
-4.5119 SORTI -0.3000
-4.5630 SORTO -0.2951
-4.3869 SORVEGLIAMO -0.3010
-4.5630 SORVEGLIERò -0.2851
-4.3869 SOSPETTA -0.3010
-4.3869 SOSPETTANDO -0.3007
-3.8326 SOSPETTARE -0.2956
-4.6879 SOSPETTATO -0.2986
-4.5119 SOSPETTI -0.2851
-4.6210 SOSPETTO -0.3010
-4.3522 SOSPIRI -0.3007
-3.9890 SOSPIRO -0.2851
-4.8640 SOSTANZA -0.3010
-4.6210 SOSTEGNO -0.3006
-3.3017 SOTTO -0.2737
-4.6879 SOTTOVENTO -0.2851
-4.4247 SOVENTE -0.2982
-4.5630 SPACCATA -0.2999
-3.5167 SPADA -0.2783
-4.2900 SPADE -0.2959
-3.9747 SPAGNA -0.2801
-4.3200 SPAGNUOLA -0.3003
-3.1357 SPAGNUOLI -0.2662
-3.6808 SPAGNUOLO -0.2702
-3.9220 SPALLE -0.2846
-4.2900 SPARANDO -0.3010
-4.8640 SPARARE -0.3008
-4.4661 SPARI -0.2851
-4.5119 SPARIZIONE -0.3010
-4.7671 SPARIZIONI -0.3010
-4.4247 SPARO -0.3009
-4.5119 SPAVENTEVOLE -0.2851
-4.0347 SPAVENTO -0.3009
-4.4661 SPAZIO -0.3008
-4.7671 SPAZZAVA -0.2951
-4.1873 SPECIALMENTE -0.3007
-4.6210 SPECIFICATA -0.3005
-3.8863 SPEDIZIONE -0.2798
-4.3869 SPEGNENDOSI -0.3006
-4.1651 SPEGNERSI -0.2850
-4.5630 SPEGNERà -0.2962
-4.2900 SPENTA -0.2851
-4.4661 SPENTO -0.3009
-4.4661 SPERANZA -0.2962
-4.9890 SPERATE -0.3005
-4.1873 SPERIAMO -0.2911
-3.3833 SPERO -0.2738
-4.4661 SPERONE -0.2996
-4.6210 SPETTACOLO -0.3006
-4.2357 SPEZZARSI -0.3009
-4.1439 SPEZZATO -0.2975
-4.4661 SPEZZO -0.2993
-4.5630 SPIA -0.3003
-4.3869 SPIACEREBBE -0.2962
-4.5119 SPIACERà -0.2962
-3.5576 SPIAGGIA -0.2789
-4.1439 SPIANATA -0.2967
-4.5119 SPICCARE -0.2976
-4.5630 SPICCAVA -0.3006
-4.3200 SPIEGA -0.3009
-4.6879 SPIEGAMI -0.3005
-4.6210 SPIEGAZIONE -0.3009
-4.4661 SPIEGHERETE -0.2951
-3.9609 SPINE -0.2815
-4.4661 SPINGARDE -0.2851
-4.0859 SPINGE -0.2998
-4.3522 SPINGENDO -0.3009
-4.4661 SPINGENDOLO -0.2996
-4.5119 SPINGERSI -0.3010
-4.3869 SPINTO -0.3009
-4.4661 SPIRITO -0.2999
-4.5119 SPOGLIANO -0.3000
-4.3869 SPOLPATO -0.2851
-4.1651 SPONDE -0.2960
-4.5630 SPORGERE -0.2986
-4.5119 SPOSA -0.3010
-4.6210 SPRECATO -0.2962
-4.6210 SPRIGIONARE -0.3010
-4.7671 SPUMA -0.3002
-4.4247 SPUNTA -0.2951
-4.3869 SPUNTERà -0.3010
-4.2900 SPUTARE -0.2995
-4.3522 SQUADRA -0.3010
-3.8033 STA -0.2834
-4.9890 STA' -0.3010
-4.5119 STAMANE -0.2986
-4.1237 STANCHI -0.2839
-4.6879 STANNO -0.3010
-4.0347 STANZA -0.2981
-4.5630 STARMENE -0.3010
-3.5969 STATA -0.3005
-4.5630 STATE -0.3010
-3.9747 STATI -0.3010
-5.4661 STATISTICHE -0.3000
-3.2758 STATO -0.2920
-4.1439 STAVA -0.2991
-4.1873 STAVANO -0.2996
-4.6210 STAVO -0.2996
-5.4661 STEFANIA -0.2851
-5.4661 STEFANO -0.2851
-4.5630 STENTO -0.2995
-4.2900 STERMINARCI -0.3007
-4.6210 STERMINARE -0.3007
-4.0347 STERMINERò -0.3007
-4.4661 STERNUTI -0.3001
-4.2620 STESSO -0.2851
-4.5630 STILLE -0.2960
-2.9596 STILLER -0.2648
-4.6210 STIVA -0.2977
-4.6210 STOMACO -0.2851
-5.4661 STOP -0.2851
-4.5630 STORMIRE -0.2995
-4.6879 STRACCI -0.2851
-4.6879 STRAGE -0.3006
-4.1237 STRANI -0.3010
-4.8640 STRANO -0.2962
-4.5630 STRAORDINARIE -0.3010
-4.6879 STRAPPARLI -0.2982
-4.5119 STRATO -0.2960
-4.5630 STRAZIANTE -0.3010
-4.5119 STREGHINO -0.2851
-4.4247 STRETTA -0.2976
-4.8640 STRETTAMENTE -0.3010
-4.7671 STRETTI -0.2851
-4.3869 STRIDORE -0.3002
-4.2900 STRINGEVA -0.3010
-4.4661 STRINSE -0.3010
-4.6210 STRINSERO -0.3010
-4.5630 STRISCIARE -0.3004
-4.5630 STRISCIAVA -0.3001
-4.6210 STROPICCIANDOSI -0.3010
-4.8640 STUPIDO -0.3010
-4.4661 STUPITO -0.2977
-4.0347 STUPORE -0.2951
-3.6273 SU -0.2952
-3.1543 SUA -0.2827
-4.4661 SUANA -0.3009
-3.7849 SUBITO -0.2809
-4.4247 SUCCEDA -0.2979
-4.3522 SUCCEDERE -0.2975
-4.3522 SUCCEDONO -0.3002
-4.2108 SUCCESSE -0.2971
-5.1651 SUCCESSIVA -0.2851
-4.1873 SUCCESSO -0.2798
-4.5119 SUCCHIARE -0.2976
-3.9890 SUDORE -0.2850
-3.7418 SUE -0.3008
-4.0347 SUFFICIENTE -0.2965
-4.2900 SUGGERí -0.3002
-3.9220 SUI -0.3004
-3.1337 SUL -0.2965
-4.6879 SULL'ALBERETTO -0.3000
-4.9890 SULL'ARROSTO -0.3009
-4.3522 SULL'ORLO -0.3000
-3.0596 SULLA -0.2994
-3.3390 SULLE -0.2996
-4.4247 SULLO -0.3010
-3.3455 SUO -0.3001
-3.3169 SUOI -0.2995
-4.1651 SUOLO -0.2837
-4.5630 SUONATORE -0.3010
-4.3200 SUONI -0.2960
-4.5630 SUPERA -0.2995
-4.3869 SUPERANO -0.2995
-5.1651 SUPERIORE -0.2977
-4.2357 SUPERSTIZIONI -0.2851
-4.2900 SUPERSTIZIOSO -0.3010
-5.4661 SUPPONGO -0.3000
-4.3522 SUPPOSIZIONE -0.3010
-4.9890 SUPREMA -0.3010
-4.0859 SUPREMO -0.2850
-4.5630 SUSSULTò -0.3010
-4.6210 SVEGLIARSI -0.2851
-4.4247 SVEGLIATI -0.2851
-4.4661 SVEGLIO -0.3006
-4.2108 SVENTURA -0.2949
-4.3200 SVENUTO -0.2836
-4.7671 SVOLTARONO -0.3010
-4.6879 SVOLTò -0.3010
-4.2357 Sé -0.2850
-3.2814 Sí -0.2886
-4.4247 T'AVRANNO -0.3010
-4.5630 TACERE -0.3006
-4.8640 TACETE -0.3006
-4.5119 TACEVANO -0.3006
-5.4661 TAGLIA -0.2851
-4.5119 TAGLIANO -0.2977
-4.6210 TAGLIARE -0.2976
-4.3522 TAGLIARGLI -0.2986
-4.1237 TAL -0.3010
-4.2357 TALE -0.3010
-4.5119 TANTA -0.3010
-4.1873 TANTI -0.3009
-4.1873 TANTO -0.2952
-5.4661 TARANTO -0.2851
-4.5630 TARDATO -0.3003
-3.4749 TARDI -0.2812
-4.3522 TASCA -0.3001
-4.5119 TASCHE -0.3010
-5.4661 TASTIERA -0.2851
-4.2357 TAVOLA -0.3009
-4.7671 TAVOLI -0.3010
-4.6879 TAVOLO -0.2977
-4.3200 TAZZA -0.2960
-4.6879 TAZZE -0.3010
-3.5685 TE -0.2792
-4.5630 TEME -0.2976
-4.4661 TEMENDO -0.2958
-4.2900 TEMERE -0.2800
-4.2620 TEMEVO -0.2959
-3.8129 TEMO -0.2958
-4.2620 TEMPESTA -0.2998
-3.3555 TEMPO -0.2674
-4.5119 TENACE -0.2977
-4.4247 TENDE -0.2986
-4.5630 TENDI -0.3005
-4.1873 TENEBRE -0.2754
-4.5119 TENEBROSA -0.3004
-4.1044 TENENDO -0.2931
-3.9890 TENENDOSI -0.2951
-4.5119 TENENTE -0.2951
-4.0859 TENERE -0.3010
-4.0682 TENERVI -0.3009
-4.6879 TENETEVI -0.3010
-4.3522 TENEVA -0.2979
-4.5630 TENEVANO -0.2995
-4.4661 TENTARE -0.2960
-4.5119 TENTATIVO -0.2996
-4.5630 TENTATO -0.2986
-4.0682 TERMINARE -0.2832
-4.5119 TERMINATO -0.3007
-4.5630 TERMINò -0.2995
-4.3869 TERMITI -0.3010
-5.4661 TERNI -0.2851
-3.7027 TERRA -0.2795
-4.5119 TERRANNO -0.3007
-4.4661 TERRENO -0.3009
-3.8640 TERRIBILE -0.2990
-4.5119 TERRIBILI -0.3000
-4.7671 TERRITORIO -0.3008
-3.9609 TERRORE -0.2971
-4.3200 TERRORIZZATI -0.2999
-4.6879 TERRò -0.2996
-4.1439 TESE -0.2971
-4.5119 TESORI -0.2999
-4.2900 TESTA -0.3000
-4.3200 TESTO -0.2835
-4.5630 TESTUGGINI -0.3010
-4.4661 TETRI -0.3010
-3.8129 TETRO -0.2844
-4.5119 TETTO -0.2977
-5.4661 THUNDERBIRD -0.2851
-3.2814 TI -0.2957
-4.6879 TICCHIO -0.2960
-4.3522 TIENE -0.3005
-4.5119 TIENI -0.3010
-4.5630 TIMONE -0.2851
-3.9476 TIMORE -0.2953
-4.5630 TIMOROSO -0.2960
-4.4247 TIRO -0.3010
-4.7671 TITOLI -0.3006
-4.4661 TIZZONI -0.2851
-4.1873 TOCCANDO -0.2789
-4.3869 TOCCATA -0.3007
-4.5630 TOCCATE -0.3010
-4.3200 TOCCO -0.3009
-4.9890 TOCCò -0.2977
-4.5119 TOH -0.3010
-4.5630 TOLDA -0.2999
-3.9890 TOLEDO -0.2961
-5.4661 TOMMASO -0.2851
-4.3869 TONO -0.3010
-5.4661 TORINO -0.2851
-4.4661 TORMENTANO -0.2951
-4.3522 TORNARE -0.2850
-4.4247 TORNARONO -0.3010
-4.4247 TORNATE -0.2981
-4.5119 TORNATO -0.3010
-4.6879 TORNAVA -0.3008
-4.5630 TORNEREMO -0.2982
-4.3200 TORNò -0.2980
-4.5119 TORRENTI -0.2851
-3.5523 TORTUE -0.2717
-5.4661 TOSCANA -0.2851
-4.5630 TOVAGLIA -0.2960
-4.2357 TRA -0.2900
-4.6879 TRABALLARE -0.2995
-4.5119 TRABALZARE -0.3001
-4.0037 TRACCE -0.2839
-5.1651 TRACCIA -0.3010
-4.6210 TRADIMENTI -0.3001
-3.8129 TRADIMENTO -0.2798
-4.2357 TRADITORE -0.2977
-4.9890 TRADITORI -0.3008
-4.8640 TRADIVA -0.2986
-4.2900 TRADIVANO -0.2976
-4.5119 TRAENDOLO -0.3010
-4.6210 TRAGICA -0.2851
-4.6210 TRAMANDAVA -0.3001
-4.6879 TRAMEZZATE -0.2977
-3.9890 TRANQUILLI -0.2950
-4.5119 TRANQUILLITà -0.2851
-4.1439 TRANQUILLO -0.2977
-4.3522 TRAPELAVA -0.3010
-4.5119 TRASALIRE -0.2951
-4.7671 TRASALí -0.3008
-4.8640 TRASBORDARE -0.3007
-4.5119 TRASCORSI -0.3009
-4.5630 TRASFIGURATO -0.2851
-4.1873 TRATTA -0.2960
-4.7671 TRATTAVA -0.3010
-4.4247 TRATTENENDO -0.2951
-4.5119 TRATTENERLO -0.2851
-4.5119 TRATTENEVANO -0.2851
-4.6210 TRATTENUTO -0.2951
-4.4661 TRATTI -0.2960
-3.5418 TRATTO -0.2857
-4.3869 TRAVERSA -0.3010
-4.5630 TRAVERSO -0.3005
-3.5071 TRE -0.3001
-4.5119 TRECENTO -0.2977
-4.7671 TREGUA -0.3008
-3.9890 TREMARE -0.2811
-4.5119 TREMENDA -0.3010
-4.3200 TREMENDE -0.2850
-4.5630 TREMENDI -0.3010
-4.2900 TREMENDO -0.2961
-4.6210 TREMITO -0.3008
-4.9890 TRENTACINQUE -0.3006
-5.4661 TRENTINO -0.3010
-5.4661 TRENTO -0.2851
-4.6879 TRIBOLI -0.2851
-4.2620 TRIBORDO -0.2976
-4.2620 TRIBú -0.2834
-5.4661 TRIESTE -0.2851
-4.5630 TRINCHETTO -0.3010
-4.5630 TRISTAMENTE -0.2951
-3.9098 TRISTE -0.3003
-4.3522 TRISTEMENTE -0.2951
-4.5630 TRISTEZZA -0.2962
-3.9747 TRISTI -0.2976
-4.2108 TRONCHI -0.2974
-4.6210 TRONCO -0.3010
-3.6336 TROPPO -0.2914
-5.4661 TROVA -0.2851
-4.3869 TROVANDOSI -0.3010
-3.7501 TROVARE -0.2795
-4.1237 TROVARMI -0.2982
-4.8640 TROVARSI -0.3010
-4.5119 TROVARTI -0.3009
-4.6210 TROVASSI -0.3001
-4.2108 TROVATI -0.2978
-4.2620 TROVATO -0.3009
-3.7257 TROVAVA -0.2957
-4.4661 TROVERAI -0.2960
-4.2620 TROVERANNO -0.2962
-4.5119 TROVEREMO -0.2982
-4.3869 TROVò -0.3010
-4.3200 TRUPPA -0.2960
-3.2539 TU -0.2905
-3.2539 TUA -0.3003
-4.0511 TUE -0.3010
-4.7671 TUMULTO -0.3007
-3.4208 TUO -0.3006
-3.7418 TUOI -0.3002
-4.4247 TUONARE -0.2982
-4.3869 TUONI -0.3009
-4.6210 TUONò -0.3010
-4.2357 TURANDOSI -0.2951
-3.8750 TUTTA -0.2947
-4.3869 TUTTAVIA -0.3010
-3.8226 TUTTE -0.2994
-3.1101 TUTTI -0.2759
-3.3589 TUTTO -0.2724
-4.4661 UBBIDISCONO -0.2851
-4.5630 UBRIACA -0.2993
-4.2900 UCCELLI -0.2962
-4.3522 UCCELLO -0.3007
-4.3200 UCCIDE -0.2976
-4.4661 UCCIDERE -0.2851
-4.7671 UCCIDERLI -0.3007
-4.6210 UCCIDERLO -0.3010
-4.6879 UCCIDILI -0.2998
-4.5630 UCCIDO -0.2982
-3.7257 UCCISO -0.2924
-4.0037 UDENDO -0.3009
-5.4661 UDINE -0.2851
-4.1237 UDIRE -0.2965
-3.8979 UDIRONO -0.2974
-4.6210 UDITA -0.3010
-3.5071 UDITO -0.2751
-4.8640 UDIVA -0.2986
-3.9609 UDIVANO -0.2991
-4.8640 UDRANNO -0.3010
-4.4661 UDREBBERO -0.3010
-3.8428 UDí -0.3008
-4.3522 UFFICIALI -0.2816
-4.6210 ULTERIORMENTE -0.2976
-4.3869 ULTIME -0.3010
-4.1873 ULTIMI -0.2982
-4.5630 UMANA -0.2851
-4.4247 UMANE -0.2985
-4.5630 UMANO -0.2977
-5.4661 UMBRIA -0.2851
-4.3869 UMIDI -0.3010
-2.2470 UN -0.2951
-4.4661 UN'AGILITà -0.2999
-4.1651 UN'ALTRA -0.3009
-4.5119 UN'ANSIETà -0.2962
-4.5119 UN'ARDITA -0.3010
-4.6210 UN'ARINGA -0.2851
-4.7671 UN'ESTREMA -0.3010
-4.4661 UN'IMPRUDENZA -0.3003
-4.5119 UN'ULTIMA -0.3009
-2.4888 UNA -0.2961
-5.1651 UNI -0.3008
-4.6879 UNITI -0.3010
-3.0734 UNO -0.2763
-3.2900 UOMINI -0.2727
-3.7585 UOMO -0.2838
-4.5119 UOVA -0.2962
-4.2900 URAGANI -0.2957
-4.6210 URAGANO -0.3009
-4.3869 URGENTE -0.2962
-4.6879 URGENTI -0.2851
-4.3869 URLA -0.2798
-4.5630 URLANDO -0.2851
-4.3200 URLARE -0.2851
-3.9609 URLO -0.2951
-4.4661 URLò -0.2951
-4.2900 URTO -0.2851
-4.1237 USANO -0.3010
-4.4247 USCENDOGLI -0.3005
-4.2620 USCIRE -0.2849
-4.7671 USCIRETE -0.2999
-4.6879 USCIRONO -0.3010
-4.5119 USCIRà -0.3009
-4.5119 USCITA -0.3009
-4.4247 USCITO -0.3009
-4.0859 USO -0.3005
-5.4661 UTENTI -0.2851
-4.9890 UTILE -0.2977
-4.8640 UTILITà -0.2851
-5.4661 UTILIZZO -0.3010
-4.5119 V'AUGURO -0.2960
-4.9890 V'HO -0.3009
-4.8640 V'OFFRO -0.2976
-4.2357 VA -0.2972
-3.9747 VA' -0.2982
-4.3869 VADA -0.2982
-4.6210 VADO -0.3006
-4.3869 VAGHE -0.3010
-5.1651 VAI -0.2822
-4.0859 VALE -0.2975
-5.4661 VALENTINA -0.2851
-4.6210 VALERE -0.3010
-5.4661 VALERIA -0.2851
-5.4661 VALERIO -0.2851
-4.3200 VALETE -0.3010
-4.1651 VALGONO -0.2849
-5.4661 VALLE -0.3010
-4.2357 VALORE -0.2998
-4.4661 VALOROSA -0.3009
-4.1651 VALOROSI -0.3010
-3.8033 VALOROSO -0.2788
-4.4661 VAMPIRO -0.2851
-5.4661 VANESSA -0.2851
-4.7671 VARI -0.3010
-4.6879 VASCELLI -0.3010
-3.6879 VASCELLO -0.2792
-4.4661 VASCONCELLOS -0.2851
-4.5119 VASTA -0.2996
-3.8979 VE -0.2999
-3.8863 VECCHIO -0.2985
-4.6210 VECE -0.3007
-4.5630 VEDE -0.2962
-3.9476 VEDENDO -0.2856
-4.5119 VEDENDOSI -0.3010
-4.6879 VEDER -0.3010
-3.8979 VEDERE -0.2973
-4.2108 VEDERLI -0.3004
-4.4661 VEDERLO -0.2951
-3.9609 VEDETE -0.2958
-4.1237 VEDEVA -0.2961
-4.4247 VEDIAMO -0.2999
-3.7418 VEDO -0.2910
-4.2900 VEDONO -0.3004
-4.7671 VEDRAI -0.3006
-4.5119 VEDRANNO -0.2993
-4.1439 VEDREMO -0.2998
-4.5119 VEDRà -0.3006
-4.5630 VEDRò -0.3007
-4.2108 VEDUTI -0.2996
-3.5630 VEDUTO -0.2973
-4.5119 VEGETALI -0.2962
-4.6210 VEGLI -0.3010
-4.6879 VEGLIA -0.3009
-4.4247 VEGLIAVA -0.3006
-4.5630 VELA -0.2996
-4.6210 VELENO -0.3010
-4.6210 VELENOSA -0.2960
-4.6879 VELIERO -0.3010
-4.5630 VELOCEMENTE -0.3010
-4.2620 VENDERE -0.3006
-4.5119 VENDETTA -0.2851
-4.6879 VENDETTE -0.2851
-4.1044 VENDICARE -0.2916
-4.5630 VENDICARMI -0.3010
-4.5630 VENDICATO -0.2851
-4.5119 VENDICATORE -0.3010
-5.1651 VENDICHERà -0.2977
-4.4247 VENENDO -0.3010
-5.4661 VENETO -0.2851
-5.1651 VENEZIA -0.2851
-4.6210 VENEZUELA -0.3003
-3.8226 VENGA -0.2970
-3.9609 VENGANO -0.2976
-4.0859 VENIAMO -0.3003
-4.4661 VENIR -0.3010
-3.7940 VENIRE -0.3007
-4.7671 VENISSI -0.2982
-4.7671 VENITE -0.3007
-4.5119 VENIVA -0.3008
-4.6210 VENIVO -0.2982
-4.3200 VENNERO -0.2995
-4.3869 VENTI -0.3009
-4.1237 VENTICINQUE -0.3010
-4.1651 VENTIMIGLIA -0.3006
-4.2357 VENTISEI -0.3010
-4.2620 VENTO -0.2976
-4.1873 VENTRE -0.2798
-4.6210 VENUTA -0.3007
-4.1044 VENUTO -0.2995
-3.8033 VERA -0.3010
-4.7671 VERAMENTE -0.2999
-3.8226 VERDE -0.2765
-4.8640 VERGINE -0.2851
-4.5630 VERGOGNA -0.3010
-3.2702 VERO -0.2772
-5.4661 VERONA -0.2851
-5.4661 VERONICA -0.2851
-4.2900 VERRAI -0.2982
-4.1651 VERRANNO -0.3004
-4.7671 VERREMO -0.3010
-4.6210 VERRà -0.2982
-2.9650 VERSO -0.2794
-4.3869 VERZURA -0.3010
-4.5119 VESSILLO -0.3010
-4.1873 VESTI -0.2972
-4.2900 VESTITA -0.2949
-4.6879 VESTITO -0.2851
-4.5630 VETRI -0.2851
-4.4661 VETTA -0.3000
-2.7110 VI -0.2929
-3.8033 VIA -0.2809
-4.6879 VIBRANDOLE -0.2986
-4.2900 VIBRARE -0.2995
-5.4661 VICENZA -0.2851
-4.5119 VICINANZE -0.2960
-4.6210 VICINE -0.2851
-4.4661 VICINI -0.2985
-4.5630 VICINISSIMI -0.2977
-4.2620 VICINO -0.2962
-4.0347 VIDE -0.2951
-5.4661 VIDEO -0.2851
-5.4661 VIDEOSCRITTURA -0.2851
-4.0189 VIDERO -0.3000
-4.1651 VIENE -0.2982
-3.7759 VIENI -0.2970
-3.8033 VIGORE -0.2850
-5.4661 VINCENZO -0.2851
-4.4661 VINCERà -0.3008
-4.2900 VINO -0.2960
-4.5630 VINTI -0.3004
-4.6210 VIOLARE -0.2995
-4.3200 VIOLENTO -0.2999
-4.6210 VIRARE -0.2960
-4.6210 VIRARONO -0.3009
-4.7671 VIRATO -0.2977
-4.4661 VIRAVA -0.3010
-4.1873 VISO -0.2847
-3.9098 VISTA -0.2841
-4.6210 VISTI -0.3009
-4.3869 VISTO -0.2992
-4.9890 VISTOLO -0.3010
-5.4661 VISUALIZZA -0.2993
-3.4618 VITA -0.2781
-4.4247 VITTORIA -0.2979
-4.5630 VITTORIE -0.2979
-3.9609 VIUZZA -0.2773
-4.4247 VIVAMENTE -0.2917
-4.6210 VIVENTE -0.2985
-4.4247 VIVENTI -0.2851
-4.3869 VIVERE -0.2996
-4.3869 VIVERI -0.3009
-3.9220 VIVI -0.2825
-4.6210 VIVIDO -0.3001
-3.6532 VIVO -0.2927
-4.6210 VO' -0.2982
-3.0823 VOCE -0.2776
-4.4247 VOCI -0.3010
-3.7940 VOGLIO -0.2973
-4.5119 VOGLIONO -0.3009
-3.0113 VOI -0.2553
-4.0682 VOLATILI -0.2976
-4.2900 VOLENTIERI -0.2985
-4.5630 VOLESSE -0.3010
-4.5119 VOLESTE -0.3010
-3.6336 VOLETE -0.2960
-4.0347 VOLEVA -0.3007
-4.6210 VOLEVO -0.3010
-3.6808 VOLGENDOSI -0.3006
-4.4661 VOLGERTI -0.3010
-4.5630 VOLGEVA -0.2995
-4.7671 VOLPE -0.3010
-3.9098 VOLSE -0.2972
-4.0511 VOLSERO -0.2941
-3.5367 VOLTA -0.2941
-4.5630 VOLTANDOSI -0.3009
-3.9609 VOLTE -0.2925
-4.7671 VOLTEGGIAVA -0.3010
-4.4661 VOLTEGGIAVANO -0.3005
-4.3869 VOLTI -0.2851
-4.4247 VOLTO -0.3010
-5.1651 VOLUME -0.2851
-4.2900 VOLUTO -0.2962
-4.4661 VORACE -0.3010
-4.6210 VORRAI -0.3004
-4.1237 VORRANNO -0.3010
-4.1044 VORREI -0.3007
-4.4661 VORREMO -0.3010
-4.0189 VORRESTI -0.3008
-4.7671 VORRETE -0.3004
-4.7671 VORRà -0.2851
-3.3047 VOSTRA -0.2801
-4.3200 VOSTRE -0.3010
-3.9609 VOSTRI -0.3009
-3.6148 VOSTRO -0.3006
-4.4661 VUOI -0.2962
-3.9890 VUOL -0.3007
-4.2900 VUOTARE -0.2985
-4.3869 VUOTO -0.3010
-4.0189 Và -0.2948
-2.7394 WAN -0.3002
-5.1651 WELTENDREM -0.2977
-5.4661 WOLFRAM -0.2851
-5.1651 WORD -0.2851
-5.4661 WRITER -0.2851
-5.1651 YOUTUBE -0.2851
-4.6210 ZAMPA -0.2851
-4.4661 ZIMBELLO -0.3009
-4.6210 ZINGARA -0.3010
-4.4661 ZIO -0.3010
-4.5630 ZITTO -0.3010
-4.5119 ZONA -0.3010
-4.6879 ZOPPI -0.2999
-4.4661 ZUCCHERINO -0.2851
-4.4247 ZUCCHERO -0.3008
-2.4771 è -0.2557

\2-grams:
-2.6814 <s> A -0.2754
-4.3249 <s> ABBASSA 0.0000
-3.1787 <s> ABBIAMO -0.2691
-3.3706 <s> ABITA 0.0000
-4.3249 <s> ABRUZZO 0.0000
-3.4218 <s> ACCORDEREMO 0.0000
-2.3904 <s> AD -0.2099
-4.3249 <s> ADA 0.0000
-3.3706 <s> ADDIO 0.0000
-3.3706 <s> AFFERRò -0.1903
-3.5467 <s> AFFIDO 0.0000
-3.3249 <s> AFFRETTAVA 0.0000
-3.8477 <s> AGGIORNA 0.0000
-4.0238 <s> AGGIUNGI 0.0000
-3.1488 <s> AL -0.2916
-4.3249 <s> ALBERTO 0.0000
-3.1787 <s> ALCUNE -0.2276
-4.3249 <s> ALESSANDRA 0.0000
-4.3249 <s> ALESSANDRO 0.0000
-4.3249 <s> ALESSIA 0.0000
-4.3249 <s> ALESSIO 0.0000
-4.3249 <s> ALEX 0.0000
-4.3249 <s> ALICE 0.0000
-3.4218 <s> ALLA -0.2832
-3.5467 <s> ALLESTITE 0.0000
-2.5614 <s> ALLORA -0.2080
-3.0944 <s> ALTRI -0.2457
-4.3249 <s> ALZA 0.0000
-3.1787 <s> AMICI -0.1283
-3.2457 <s> AMMIRO -0.1549
-2.4556 <s> ANCHE -0.1814
-4.3249 <s> ANCONA 0.0000
-2.8625 <s> ANDIAMO 0.0000
-4.3249 <s> ANDREA 0.0000
-3.6259 <s> ANDRETE 0.0000
-4.3249 <s> ANDRIA 0.0000
-4.3249 <s> ANGELA 0.0000
